{
  "num_layers": 4,
  "layer_sizes": [784, 128, 64, 10],
  "weights": [
    [-0.0013463637, 0.0473588560, -0.2074920418, 0.0357260070, 0.0513015610, 0.0204175342, 0.0491190754, -0.0574772757, -0.0130717814, -0.0364654687, 0.0626248057, 0.0733213698, 0.0714422873, 0.0170545509, 0.0449675369, -0.0739830512, 0.0155495533, 0.0610606680, -0.0372671439, 0.0292655194, -0.0353557101, 0.1278051018, -0.0643340559, 0.0248735107, -0.0242544649, 0.0612264173, 0.0295532071, 0.0543180282, -0.0318862780, 0.0425189350, 0.0451632838, -0.0662202048, 0.0086550461, -0.0084039200, 0.0116598930, 0.0287622339, 0.0134815112, 0.0289306181, 0.0062745987, -0.0609313270, 0.0426443055, 0.0200090626, -0.0363509379, -0.0489853795, 0.0332316066, -0.0390836889, 0.0105680864, 0.0886326230, -0.0238896952, 0.0848681648, -0.0190480881, -0.0392484627, -0.0504149705, -0.0117430252, 0.0031587373, -0.0178244119, -0.1094915741, 0.0096712329, 0.1061885525, 0.0544776690, -0.0625462581, -0.0248843538, 0.0696442011, 0.0693017125, -0.0371616422, -0.0132761107, 0.0025027196, -0.0722492831, 0.0345980218, 0.0149280068, 0.0289681534, -0.0605887424, 0.0562399709, -0.0756287523, -0.0216135167, 0.0321816326, -0.0672021572, -0.0567824777, 0.0529329781, 0.0638512786, -0.0481596297, -0.0494702699, 0.0344439234, 0.0443176818, 0.0090697098, -0.0712958523, -0.0353805238, 0.0265503591, 0.0642982874, -0.0244215478, 0.0499240223, -0.0424827777, 0.0650762525, 0.0270260260, -0.0244731319, -0.0186437099, -0.0155626604, -0.0318692667, 0.0552457658, -0.0062280517, 0.0007728270, -0.0377431780, -0.0745156375, -0.0158904927, 0.0089529382, 0.1566737141, -0.0768647094, -0.0024089752, 0.0059852683, -0.0336233471, -0.0477362014, -0.0029286767, -0.0345498791, 0.0325505684, -0.0669381948, 0.0105348388, 0.0874128557, -0.0300929265, -0.0645282689, 0.0755425057, 0.0130730882, 0.0183297501, -0.0413042986, 0.0201513850, -0.0448359514, -0.0351423509, 0.0142610837, -0.0217264160, -0.0181972560, 0.0409001667, 0.0899052304, -0.0454092461, 0.0105153372, -0.0114178766, 0.0400951289, -0.0882659029, 0.0575217388, 0.0421180113, -0.0319473579, 0.1275587874, -0.0387908613, -0.0413624401, -0.0331221200, -0.0157173049, -0.0803167969, -0.0477581855, 0.0480448646, -0.0212735239, -0.0877068373, 0.0080601506, 0.0338916851, 0.0594078423, 0.0748773472, -0.0071552410, 0.0305983671, 0.0366163459, -0.0700945589, 0.0636603187, -0.0760372208, -0.0251812028, 0.0255093086, -0.0168077738, -0.0198212911, 0.0451308138, -0.0510251496, 0.0063278013, 0.0872273490, 0.0066923503, -0.0243147315, 0.0143829762, -0.0261356981, -0.1129284479, -0.0955525014, 0.0191422530, 0.0244509403, -0.0251761047, 0.0065502466, 0.0014355082, -0.0191909634, 0.0781799958, 0.1041796734, 0.0111739156, -0.0085098857, -0.0077175791, -0.0300214579, 0.0310810253, 0.0754294664, 0.0074201408, 0.0416093195, 0.0458109854, 0.0711679750, -0.0299706580, 0.0353075404, 0.0474523692, -0.0524868614, -0.0362007346, -0.0569996948, -0.0090588439, 0.0286305827, -0.1378135807, 0.0293202579, -0.0551741194, 0.0396450603, 0.0307380245, 0.0050212164, -0.0685228992, 0.0937784969, -0.0145230104, -0.0164256501, -0.0004791909, 0.0216801009, -0.0196495066, -0.0588530010, 0.0358834169, -0.0382550424, 0.0501963325, 0.0617673988, 0.0237549773, -0.0214127838, 0.0920739869, -0.0220121085, 0.0540244176, 0.0272571828, 0.0778492263, -0.0536767462, -0.0679564481, 0.0608959964, 0.0202395398, -0.0436387752, 0.0136619539, -0.1628794560, -0.1101721391, -0.0030732196, -0.0415687517, 0.0367822612, 0.0634013214, 0.0365759277, -0.0285572262, 0.1531710327, -0.0548586163, 0.0429837925, 0.0143155209, -0.0041119523, -0.0311177285, -0.0095332914, 0.0538872633, -0.0815843069, 0.0052963612, 0.0289453850, -0.0934091401, -0.1175921487, 0.0294346064, -0.0177765641, -0.0420670608, 0.0269647707, 0.0100732177, 0.0939989085, 0.0352598031, -0.0469284728, -0.0200483716, 0.0495660971, -0.0319684895, -0.0437251533, -0.0472996313, -0.0552403548, -0.0936668109, -0.0931645654, -0.0389521110, -0.0190047979, 0.0024313236, 0.0425204638, -0.0749389185, 0.0221059508, -0.0394753480, 0.0619115815, -0.0260682533, 0.0170178905, -0.0243106648, -0.0696876275, 0.0063640411, 0.0978829509, 0.0205601701, 0.0363047414, -0.0394412459, -0.0258512373, 0.0358200072, 0.0260543595, -0.0295918596, -0.0210974834, 0.0277025715, 0.0508191643, -0.0117291234, 0.0297922933, 0.0485571223, -0.0421460648, 0.0046036199, 0.0084478466, -0.0018642675, -0.0190492540, 0.0132581035, -0.0644613893, 0.0260687742, -0.0644063737, 0.0644575409, 0.0189466126, -0.0182963805, 0.0072775016, 0.0075069413, 0.0324453810, 0.0076975354, -0.0190083807, -0.0379788235, -0.0235163107, 0.0088551363, -0.0810708810, -0.0822993985, 0.1169875116, -0.0429058685, 0.0581888590, -0.0363237791, -0.0444630154, 0.0467241487, 0.0056212108, 0.0132152803, -0.0459885793, 0.0217116529, 0.0386721202, 0.0222302005, 0.0113121207, 0.0663424780, -0.0422225932, -0.0201266310, 0.0175277738, 0.0380449128, -0.0819892997, 0.0301247702, 0.0230998690, 0.0856370820, 0.1309997411, -0.0314957704, -0.0384893589, 0.0472407621, 0.0200452533, -0.0271038472, -0.0648713761, 0.0773730668, 0.0038117735, -0.0200565237, 0.0616259414, 0.0137946799, -0.0215525315, -0.0134466615, -0.0555250330, 0.0294793573, -0.0412889010, -0.0398092119, 0.0041854296, -0.0723398552, -0.0681902076, 0.0091597326, 0.1079341892, 0.0266828759, -0.0150764932, 0.0690737443, -0.0633604094, 0.0592363089, -0.0150820593, 0.0479605373, -0.0231846001, 0.1146784426, -0.0199326342, 0.0020152537, 0.0058342343, -0.0038099840, 0.0686956177, -0.0719811990, 0.0814897386, 0.0574500002, 0.0164427751, 0.1017815169, -0.0403906592, 0.0162043660, -0.1331113607, -0.0562415629, 0.0213542856, -0.0692611317, 0.0120431332, -0.0415882804, -0.0487682292, 0.0150881447, 0.0472542284, 0.0228236070, -0.0166966647, -0.0191773643, 0.0651755248, 0.0045090955, 0.0449544166, -0.0095665109, 0.0539139538, -0.0032434700, 0.0874148643, 0.0348834861, 0.0254468466, -0.0433711372, -0.0421762799, -0.0049075560, -0.0502047639, -0.1140392133, 0.0833592089, -0.0212713357, 0.0111611644, 0.0035513341, -0.0306788743, 0.0351561613, 0.0050827553, -0.1000705055, 0.0683336901, 0.0347649076, 0.0027270617, -0.0407122535, 0.0309480821, -0.0158097269, 0.0527646563, -0.0133824843, -0.0209891380, 0.0107674188, -0.0097057374, 0.1259590666, -0.1202288034, -0.0105590260, 0.0277609518, 0.0175427420, -0.0066087590, 0.0822048963, 0.0276669865, -0.0482735745, -0.0339016448, -0.0027014117, -0.0647710452, 0.0034365414, -0.0092645830, 0.0074551832, 0.0119531224, 0.1221551954, 0.0519483685, -0.0620846679, -0.0069327151, 0.0516379050, 0.0083770342, -0.0700783981, -0.0349510199, -0.0296689978, -0.1099531104, -0.0408790281, -0.0760028434, -0.0201375665, -0.0169881630, 0.0487182607, -0.0257954203, 0.0045683938, 0.0200620084, -0.0426690669, 0.0318738168, 0.0301438493, -0.0162594366, -0.0519603947, -0.0216855179, 0.0013369495, -0.0174637396, 0.0458258638, -0.0255366255, 0.0477139304, -0.0163653249, -0.1694856272, 0.0118583627, -0.0035989014, -0.1107812868, -0.0429396749, 0.0192150171, -0.0421467463, 0.0132355654, 0.0809086781, 0.0489234607, -0.0486898542, 0.0062401326, 0.0777184721, -0.0934314578, 0.0963078391, 0.0488706011, 0.0422804036, -0.1044089027, 0.0650972120, 0.0308858730, -0.0423860845, -0.0131710804, 0.0168746746, 0.0568297078, 0.0253767482, 0.0954607700, 0.0697167385, -0.0316382778, 0.0105757074, 0.0775912563, -0.0185921775, -0.0757736489, -0.0067276288, 0.0170520837, -0.0584564621, 0.0208269879, 0.0939061918, 0.0871723725, -0.0502270015, 0.1425959016, 0.0194104018, 0.0058589386, 0.0054039295, 0.0590050177, -0.0238870849, -0.0985132926, -0.0967576508, -0.0247844467, -0.0173750004, 0.0741736993, 0.0083369048, -0.0076492377, 0.0559554525, -0.0829512680, -0.0062558515, -0.0465986651, -0.0626590136, -0.0719255083, 0.0201006362, 0.0313937973, -0.0090910086, -0.0772193495, 0.0346118328, 0.0002107460, -0.0125193575, 0.0157619384, -0.0314800815, 0.0571632810, -0.0005093544, -0.0626214104, 0.1324556982, -0.0204857229, 0.0118864755, -0.0318472822, -0.0890039856, -0.0531139078, 0.0493352825, -0.0132995314, 0.1131253106, 0.0811545546, 0.0785488828, 0.0662634176, -0.0323716947, -0.0261186694, -0.0075437253, -0.0164635593, 0.0488855740, -0.0101356058, 0.1112444872, 0.0621243001, 0.0489065739, 0.0553294373, -0.0311394962, 0.0497213922, -0.0120677316, 0.0035756885, 0.0415372000, -0.0300925204, -0.0462943772, 0.0377545852, -0.0175140797, 0.0631839868, -0.0176122037, -0.0414543135, 0.0844450041, 0.0254070037, 0.0036471398, 0.0080966426, -0.0105947510, 0.0166961100, -0.1474712114, -0.0025124617, -0.0466804496, 0.0564051722, 0.0659373835, 0.0042850031, -0.0508949063, 0.0412349417, -0.0112319022, 0.0342955477, -0.0213080692, -0.0039188406, 0.0149985561, 0.0222865186, 0.0207793648, 0.0568697527, -0.0494235695, 0.0212156459, 0.0119786901, 0.1330571591, 0.0116562006, 0.0002172081, -0.0339191335, -0.0417031460, 0.0318804826, 0.0268337127, 0.0025701642, -0.0116911267, -0.0556151935, -0.0123785202, -0.0453448012, -0.0325526657, -0.0410011835, -0.0319429244, -0.0656487079, 0.0241462745, -0.0368614304, -0.0670429658, -0.0078464885, -0.0593429580, 0.0445855860, 0.0212173515, 0.0212664912, 0.0058218550, -0.0451240863, 0.0264181627, -0.0250068815, -0.0508287689, 0.1042691519, -0.0839905477, 0.0437855002, 0.0069285966, 0.0581392947, 0.0188575337, 0.0195274410, -0.0295402037, -0.0303767385, -0.0784945148, 0.0238649738, -0.0370679626, -0.0653736397, 0.0139994979, 0.0888507119, -0.0022811927, 0.0161382399, -0.0329022065, -0.0240723178, 0.0140905876, -0.0403715048, -0.0663637008, 0.0275283816, 0.0238019236, 0.0160361376, -0.0567352588, 0.0188475488, -0.0127630278, -0.0154489153, 0.0462522806, -0.0668191120, 0.0268628791, 0.0681959514, -0.0122293964, -0.0399209633, 0.0391572577, 0.0236624660, 0.0516505855, -0.1171852917, 0.0601557797, -0.0388422081, -0.0322046291, -0.0133907684, -0.0842898350, -0.0170373961, 0.0432726674, 0.0080564579, -0.1085041139, 0.0052216816, -0.0064439451, -0.0152503924, 0.0578329173, 0.1005023706, 0.0052813333, 0.0618377895, 0.1029966170, -0.0404613998, -0.0338005303, 0.0247265272, -0.0797596319, -0.0382799264, -0.0547723902, -0.0456709197, 0.0571070147, 0.0840296461, -0.0120999301, 0.0560871459, -0.0386075003, 0.0177085029, -0.0219389023, -0.0895308033, 0.0190590718, 0.0048629905, -0.0346749638, -0.0483038875, -0.1005869345, -0.0071997591, -0.0434693712, -0.0269166103, 0.0257601596, 0.0740593402, -0.1015767298, -0.0102213174, -0.0257115162, -0.0122201091, -0.0134741571, -0.0189077433, 0.0175275855, -0.0311093017, -0.0488579174, -0.0126226662, 0.0768210198, -0.0266631209, -0.0833092212, -0.0030740833, 0.0699338683, -0.0434755704, -0.0561961724, -0.0011520883, 0.0453849703, 0.0563714254, -0.0229668705, 0.0187039655, 0.0847118741, -0.0181746867, 0.0277893027, -0.0144450228, 0.0389689165, 0.0966641357, 0.0530908997, 0.0304494748, -0.0042914090, -0.0745300776, 0.0273320904, 0.0314091855, -0.0129996129, 0.0203794461, -0.0074902445, 0.0273985785, 0.0607892782, -0.0120994148, -0.0108988487, -0.0173106486, -0.0398148354, 0.0263595510, -0.0479924782, -0.1286606095, -0.0219120371, -0.0912083251, 0.0077116954, -0.0150644447, -0.1165890548, -0.0137525560, 0.0400141478, 0.0504264865, 0.0856554056, 0.0306228813, 0.0504192222, 0.0179262577, -0.0428686305, 0.0105026904, -0.0061336007, 0.0030154564, 0.0139191669, 0.0484151565, 0.0475561046, -0.0229362694, -0.0569808177, 0.0695734169, 0.0133356728, 0.0041990085, -0.0306540403, -0.0010501189, 0.0174137939, -0.0451354927, -0.0241398821, -0.0210434921, -0.0979315670, -0.0357516375, -0.0941531161, -0.0022406140, -0.0373218291, 0.0049495854, -0.0459699044, 0.0256412598, 0.0268202925, 0.0168190668, -0.0190605913, 0.0475340607, 0.0338830451, 0.0431395585, 0.0489012732, -0.0850546735, -0.0091338348, -0.0623176111, 0.0331812548, 0.0440854087, -0.0105304861, 0.0222505981, -0.0030996430, 0.0082481026, -0.0309962382, 0.0054407075, -0.0669742493, 0.0744177563, -0.0658543524, 0.0188660062, 0.0418746197, 0.0500445896, -0.0508427992, 0.0384851206, 0.0334276376, -0.1055357516, 0.0340042938, 0.0332275804, -0.0307866508, -0.0052745462, 0.1182780684, -0.0654747746, -0.0610823983, -0.0295952367, 0.1351804914, -0.0186440875, 0.0089852778, 0.0110907542, -0.0507255391, -0.0326358139, -0.0045067909, -0.0325381908, -0.0108633188, 0.0496755798, -0.0407689718, -0.0082137987, -0.0245303351, 0.0916300768, -0.0972883134, 0.0337370078, 0.0372620421, -0.0294824646, -0.0731130525, -0.0328685270, 0.0261681650, 0.0102498396, -0.0235692070, -0.0445513463, 0.0051313308, -0.0355427151, -0.0009842039, 0.0680126685, -0.0637516515, -0.0208865855, -0.0114597565, -0.0428569217, -0.0434463717, 0.0001651045, -0.1000901569, -0.0341207835, -0.0293632344, -0.0715994590, -0.1269661510, 0.0397208930, 0.0567058057, 0.0064132960, 0.0238501119, -0.0090375578, -0.0246498277, -0.0260240262, -0.0889465990, 0.1025081154, 0.0115871373, 0.0382074169, 0.0624800657, 0.0120801868, -0.0591779860, -0.0665899786, 0.0962383511, -0.0517444078, 0.1339866855, 0.0671711244, 0.0810275888, 0.0233193224, 0.0526369229, 0.0144267583, -0.0560027918, -0.0399668977, -0.0339552344, 0.0196119202, 0.0702156645, -0.0176852508, 0.0004297294, -0.0872510907, -0.0457603546, -0.0999859246, 0.0299145330, -0.0154856302, -0.0437260178, -0.0364664351, 0.0332820675, 0.0451970340, 0.0603290782, -0.0300407885, 0.0560039959, 0.0155061236, 0.1208830275, -0.0483266563, -0.0319675052, -0.0829795498, 0.0260996802, -0.1009105827, -0.0471334766, -0.0788560435, 0.0034976615, 0.1087519080, -0.0471682102, 0.0979251411, -0.0213397224, 0.0459586445, 0.0341636038, 0.0094125668, -0.0593976339, 0.0576894927, -0.0161718036, 0.0613868952, -0.0279577901, 0.0068164540, -0.0136413552, -0.0381801520, 0.0120371235, 0.0475633588, -0.0763874930, 0.1090341283, -0.0420821657, 0.1438650066, 0.0277959166, 0.0216168709, 0.0375965101, 0.0273952350, 0.0234908668, -0.0723734686, -0.0521444479, -0.0099231992, -0.0771880425, -0.0239879648, -0.0723157015, -0.0149124677, 0.1115709527, 0.0040350745, -0.0371987147, -0.0392462031, 0.0587359832, -0.0183638861, 0.0901792291, 0.0293168237, 0.0796182501, -0.0297250480, -0.0716814067, -0.0635854296, -0.1002543300, -0.0737075162, 0.0112235919, 0.1034319236, -0.0196381609, -0.0571172197, -0.0619947343, 0.0081262340, 0.0464661004, -0.0523980585, -0.0952406370, 0.0404703456, 0.0595797140, -0.0242645272, 0.0376432696, -0.0148283162, -0.0555969266, -0.0937056898, -0.0097026093, -0.0095128406, -0.0904968305, -0.0445836524, -0.0560666257, -0.0847784236, 0.0081956302, -0.0092399496, -0.0938695890, -0.0427367688, -0.0475629155, 0.0104457966, -0.0154366328, 0.0125669241, 0.0218883465, -0.0542680662, 0.0671045421, -0.0778579699, -0.0401340564, -0.0072649191, 0.0216108854, -0.0675183311, 0.0231302363, 0.0200907489, -0.0439973283, 0.0092179513, -0.1395677102, -0.0576775930, -0.0347887420, -0.0435986563, 0.0136083658, 0.1203960067, -0.0101939731, 0.0476583134, 0.0142577067, 0.0044671683, 0.0003344145, 0.0831157108, 0.0227399654, -0.0302217883, 0.0143880207, -0.0262956164, 0.0094948332, -0.0696751778, 0.0258856153, 0.0057831085, 0.1229372930, -0.0098439018, -0.0785480842, 0.0741066673, -0.0067288368, 0.0166576023, 0.0611934060, -0.0251723518, -0.0949264769, -0.0102468669, -0.0200434530, -0.0741511687, -0.0272383723, -0.0297939604, 0.0171968423, -0.0333958936, 0.0221412445, 0.0436856993, 0.0191211339, 0.0692668850, 0.0546525982, 0.0089421625, 0.0026201565, 0.0469166825, -0.0041300867, 0.0171115073, 0.0159641591, 0.0064708494, -0.0470400814, 0.0790244003, 0.0841834792, 0.0714070621, 0.0302284500, 0.0069948842, 0.0001536347, -0.0354590290, -0.0437696764, -0.0533129188, -0.0396055556, -0.0560765413, -0.0075393198, 0.0307393801, 0.0085749652, 0.0435665000, 0.0361911521, 0.1139474733, -0.0205120058, -0.0037029615, 0.0659590190, 0.0023366257, -0.0313481620, -0.0477402186, 0.0344084832, 0.0006023668, -0.0519754887, -0.0882005918, 0.0155620472, 0.0026873430, 0.1222317193, -0.0068394411, -0.0138254531, 0.0109298605, -0.0291545486, 0.0288615883, -0.0458364476, 0.0598126246, 0.0351318310, -0.0532805164, -0.0288484442, -0.0790897080, -0.0161633986, -0.0043556205, -0.0352656430, -0.0019121758, -0.0116956363, 0.0190024016, -0.0245030247, -0.1081207296, -0.0804386517, 0.0469532424, 0.0108693079, -0.0013772086, -0.0108931390, -0.0044967411, -0.0208947456, -0.0285816892, 0.0329710114, 0.0648983745, -0.0467775274, -0.0127913285, 0.0041399697, -0.0026078159, 0.0227726406, 0.0202097680, 0.0099968967, -0.1088410578, 0.0835853327, 0.0771979806, -0.0624105380, 0.0305611590, 0.0392336652, -0.0387740834, 0.0657758813, -0.0638228239, -0.0280699451, 0.0429467209, 0.0126854524, 0.0219529094, 0.0758231430, -0.0064642449, 0.0663761210, -0.1073251373, -0.0013771344, -0.0006620820, -0.0372083556, -0.0733780911, 0.0673550021, -0.0206981521, -0.0561557954, -0.0043320071, 0.0935283612, 0.0224513747, -0.0400454493, -0.0350248219, -0.0139133657, 0.0297515990, 0.0198387588, 0.0179591426, 0.0500348622, 0.0595131334, -0.0363050214, -0.0103355259, -0.0712840544, -0.0895885160, 0.0190164966, 0.0678321533, 0.0529248544, -0.0301261535, -0.0571605721, 0.0130805709, 0.0809357984, 0.0380591752, 0.0956479182, -0.0190378085, 0.0162463303, 0.0027412819, -0.0765697584, -0.0136582343, 0.0113181200, 0.0462390182, -0.0620333842, -0.0404334692, -0.0541252463, 0.1286939425, 0.1050856587, -0.0154026351, -0.1019745668, 0.0305584702, -0.0162646888, -0.0298255936, -0.0694730890, -0.0284444245, 0.0121478949, 0.0038997459, 0.0168009947, 0.0198117707, -0.0584596499, 0.0460140390, -0.0415814437, 0.0475271427, 0.0417536062, -0.0176552316, 0.0502162557, 0.0002432669, -0.0357661436, -0.0303947256, -0.0539009917, -0.0052709957, 0.0662469280, -0.0233102430, 0.0985162127, -0.0553477079, 0.0409494941, -0.0199190255, -0.0221489687, -0.0255591440, -0.0501289087, 0.0378581352, 0.0577379130, 0.0368091129, -0.0014494301, 0.0692543802, -0.0144435047, -0.0177909489, -0.0668522148, -0.0400518000, 0.0445752645, -0.0017953968, -0.0879983777, 0.0128709620, 0.0451811199, 0.0277380672, -0.0706096948, 0.0555849675, -0.0458187487, -0.0201452259, 0.0427442856, -0.0683298919, -0.0545392374, -0.0100755296, -0.0868107155, 0.0724946229, 0.0582400375, -0.0782272700, 0.0402994848, 0.0357905049, 0.0175267515, 0.0066569174, -0.0267680801, 0.1048232636, -0.0538039814, 0.0196105695, -0.0022455202, 0.0623095453, 0.0041665412, -0.0354347013, 0.0246842825, 0.0336498823, -0.0230733882, -0.0351748466, -0.0173243261, -0.0650637288, 0.0789593196, -0.0024378393, 0.0135986353, 0.0165180417, -0.0136665996, 0.0231354276, 0.1342380313, -0.0605352112, 0.0820970420, 0.0198084149, -0.0120524982, 0.0037401407, 0.0225274958, -0.0795297428, -0.0407171918, -0.1193712679, 0.0177620673, -0.0922550245, 0.0473318670, 0.0604600248, 0.0750908826, -0.0468267548, -0.0046685096, -0.0025104343, -0.0351991733, -0.0687652928, -0.0067557180, 0.0433211712, -0.0787637179, -0.0718422303, -0.0619057200, 0.0144475574, 0.0870596322, 0.0252716245, -0.0640601875, -0.0195051585, 0.0215889461, -0.0272201674, -0.0430055111, 0.0038454495, 0.0853298573, 0.0403322981, 0.0056630931, -0.0113812818, 0.0124787616, -0.0367715397, 0.0523835824, -0.0000029637, -0.1266398695, 0.0354015672, -0.0999785467, -0.0011324661, -0.0212421292, -0.0359299730, 0.0015767983, 0.0514752718, 0.0332962216, 0.0054923890, 0.0173474140, 0.0438262418, -0.0911251389, 0.0090857818, -0.0509847549, -0.0569356421, 0.1041580020, 0.0165171323, 0.0109090910, 0.0081189303, -0.0181562622, -0.0361587925, 0.0505208959, 0.0561203942, -0.0495420541, 0.0188608717, 0.0731128466, -0.0757111886, 0.0048127783, 0.0776149677, 0.0257281779, -0.0479648613, 0.0040614562, -0.0439110655, -0.0609788683, 0.0510604936, 0.0221668548, -0.0599565960, -0.0582313673, -0.0710842632, 0.0049121714, -0.0187538089, 0.0129869342, -0.0313356555, 0.0335277393, 0.0521624467, 0.0156577491, 0.0192602422, 0.0632553493, 0.0187393395, 0.0201002414, -0.0365388193, 0.0152658582, 0.0191905724, 0.0177588769, -0.0007439233, 0.0773336466, 0.1155016618, 0.0886520635, 0.0008191815, 0.0052226030, 0.0279323637, -0.0134427584, -0.0375507488, 0.0649543985, 0.0723319536, 0.0266671825, -0.0275655913, -0.0661562512, 0.0360491265, -0.0156707241, -0.0233635413, 0.0201903546, -0.0430153724, -0.0012419081, -0.0404503223, 0.0690640035, -0.0420683135, -0.0170449306, -0.0421647540, -0.0863127214, 0.0433619778, 0.0211147639, 0.0393794166, -0.0458382771, 0.0164671084, -0.0273627309, 0.0240387451, -0.0638060845, 0.0365818971, 0.0248619858, 0.0288524377, -0.0161811507, 0.0112920474, 0.0329446609, 0.0170093052, -0.0624579745, 0.0273072312, -0.0388629276, -0.0031315527, 0.0181731485, -0.0564496589, 0.0174496459, 0.0387959912, -0.0237634208, -0.0925982117, 0.0565792330, 0.0517363865, 0.0345285180, 0.0568084726, 0.0524550257, -0.0380625694, -0.0348123566, -0.0546202482, -0.1243178858, 0.0321943192, 0.0220207453, 0.0502515762, 0.0086890956, 0.0248698129, 0.0484026810, 0.0043103874, 0.0336244706, 0.0289923295, 0.0631178877, 0.0079499980, -0.0514052063, 0.0421976506, 0.0180391559, -0.0012649251, -0.0126697464, 0.0571534840, -0.0232552232, 0.0969893764, 0.0187038212, -0.0123613277, -0.0263304448, -0.0559777762, 0.0582053971, -0.0468395797, -0.0845049991, -0.0383660166, -0.0752130419, -0.0345758738, 0.0310139216, -0.0299142764, 0.0204054311, 0.0562105600, -0.0562153403, -0.0238483533, 0.0251781319, -0.0123582369, 0.0567390044, -0.0082040247, -0.0665470097, -0.0928172165, 0.0754510143, -0.0501607642, -0.0569487690, 0.0343269953, -0.0115523434, 0.0178680273, -0.0035948816, -0.0810404477, 0.0776163108, 0.0013529388, 0.0226138315, 0.0905184660, 0.1268420975, 0.0035302379, 0.0317770109, 0.0239849082, -0.0096489453, 0.0938268003, 0.0338062387, 0.0143193251, 0.0418024392, 0.0103785303, -0.0193865222, 0.0033468263, 0.0228481043, -0.0615880693, 0.0271289257, -0.0190380080, 0.0613621507, 0.0160799362, -0.1024194523, 0.0066033618, 0.0659716373, -0.0138865991, 0.0045327166, 0.0254552059, 0.0130128567, 0.0784863602, 0.0467877589, 0.0950005043, 0.0262564360, -0.0619588178, 0.0235987014, -0.1014220843, 0.0183041856, 0.0583845290, 0.0080076150, 0.0396029681, -0.0962899848, 0.0318324430, -0.0774818210, -0.0023080179, 0.0360539681, 0.0428455667, -0.0008864908, -0.0822398689, -0.0428730844, -0.0072392353, 0.0539590878, -0.0612686589, -0.0710871113, 0.0561622669, 0.0302194376, 0.0194114092, -0.0311839293, 0.0150609785, -0.0578340137, 0.0091260255, 0.0003447258, -0.0076191810, 0.0204112376, 0.0221488049, 0.0117763472, -0.0097414037, -0.0023997162, 0.0426199223, 0.0669322476, 0.0064651133, 0.0131067360, -0.0945463874, 0.0546726011, -0.0260274323, -0.0397249952, 0.0143243524, -0.0357917335, 0.0219787328, -0.0393097207, -0.1039121007, -0.0589501280, 0.0322400188, -0.0431244335, -0.0178580485, 0.0545361182, 0.0036870992, 0.1439045058, -0.0414349865, 0.1036547552, 0.0297668398, -0.0229128400, 0.0885338393, -0.1040111530, -0.0291826475, -0.0145749707, 0.0637260146, 0.0619983168, -0.0718024377, -0.0854088410, -0.0997441005, 0.0522557286, -0.0385632534, -0.0840015766, 0.0158202351, -0.0373625654, 0.0964059888, 0.1233414645, 0.0969326903, -0.0297246696, -0.0307877913, 0.0344204555, 0.0140642255, 0.0350724426, 0.0841311541, -0.0412459373, 0.0631786879, 0.0507483523, -0.0574936026, -0.0379646368, 0.0373436285, 0.0003755472, 0.0320438625, 0.0171894330, -0.0858736376, 0.0894951769, 0.0124951178, -0.0124885024, -0.0206016035, 0.0489680535, 0.0501800116, 0.0748973989, -0.0046495657, -0.0964127222, -0.0442962393, 0.0961567985, 0.0425701458, -0.0380934837, -0.1064063661, -0.0025074279, -0.0200442906, 0.0656378191, 0.0536334702, 0.0352869532, 0.0202847012, -0.0777549237, -0.0866761405, 0.0543966011, -0.0936127392, -0.0260169799, -0.0354426091, 0.0440684189, 0.0343156485, 0.0614424233, -0.0637393323, -0.0657207275, -0.0084476229, -0.0513476925, 0.0159284724, 0.0076312717, -0.0135698557, 0.0410442903, 0.1369706276, 0.0533682414, 0.0064974994, 0.0280196151, -0.0030760898, 0.0071836034, 0.0385639718, 0.0686923479, 0.0021512254, -0.0483537521, -0.0006986456, 0.0353853329, -0.0000487693, -0.0794423757, 0.0227795153, 0.0369686888, 0.0039395817, -0.1370228495, -0.0551068207, 0.0746251356, 0.0843635760, 0.0807816424, -0.0100493931, -0.0755271445, -0.0463040359, 0.0166199885, -0.0746952439, 0.0577034221, -0.0364015648, -0.0520970558, 0.0612431072, -0.0305939752, -0.0405793630, -0.0027595365, 0.0559338495, -0.0142817396, -0.0930833754, 0.0690103082, -0.0086235421, -0.0513524937, 0.0017901940, 0.0155000399, 0.0148685421, -0.1140576754, -0.0655839284, 0.0006669430, -0.0405969799, 0.1009381580, 0.0854593338, 0.0193103178, -0.0847096027, -0.0173362326, -0.0323359028, 0.0600946855, 0.0025008576, 0.0522832065, 0.0885623028, 0.0820932096, 0.0250623220, 0.0626245050, -0.0493789600, 0.0283514975, 0.0700362755, -0.0060131939, -0.0137841329, 0.0471704996, 0.0166554648, 0.0845489451, -0.0207229000, 0.0050699409, -0.0072327478, -0.0296184798, -0.0038029789, 0.0482514660, 0.0218877381, -0.0126715055, 0.0094163886, -0.0159926648, -0.0280997371, -0.1046508609, -0.0064732002, -0.0507519453, -0.0117696621, -0.0353693530, -0.0686806276, 0.0410581666, 0.0260477846, 0.0595702875, 0.0306261952, -0.0038705588, 0.0151311653, -0.0827077937, -0.0441581206, -0.0506795948, 0.0000892217, -0.0263737659, -0.0023074802, 0.0283048660, 0.0043590548, -0.0238870288, 0.0382304999, 0.0216613382, -0.0107106516, 0.0064457654, 0.0262487700, -0.0517511736, -0.0756177553, -0.0492096896, 0.0578767196, 0.1117041999, 0.0466163314, -0.0302870293, 0.0609385220, 0.0665426356, -0.0383613697, 0.0623015360, -0.0525288067, -0.0529429110, -0.0833531622, 0.0901228721, -0.0380628137, -0.0247023162, -0.0833050590, -0.0661464427, -0.0392358235, 0.0537516145, 0.0218751763, -0.0612331697, -0.1028083053, -0.0061201889, 0.0949028080, -0.0285316255, 0.0498525265, 0.0084296034, 0.0490036723, 0.0167563718, -0.0079417387, 0.0262859113, 0.0032653568, -0.0669542241, 0.0411626036, 0.0530898459, 0.0901515430, 0.0272611941, 0.0524830910, -0.0093759856, -0.0063512956, -0.0803135028, 0.0023991596, -0.0082961852, 0.0467966349, 0.0641832416, -0.0193807771, 0.0031308666, -0.0291384209, 0.0196633337, 0.0378796078, -0.0776682796, -0.1072709539, -0.0440432645, -0.0690754592, -0.0303738259, -0.0881519221, 0.0274286059, 0.0103844502, 0.0684488094, -0.0486906373, 0.0118125906, 0.0165864543, -0.0080164309, -0.0362527629, -0.0228261192, -0.0005442236, 0.1117189202, -0.0660825335, -0.0455277071, 0.0321591397, -0.0051669234, -0.0028388025, 0.0572354116, -0.0140266130, -0.0212703414, -0.0946210188, 0.1182115694, 0.0601143795, 0.0468463120, 0.0371796067, -0.0537058954, -0.0255939322, 0.0603312102, 0.0887075818, -0.0193315446, -0.0322262579, 0.0321338895, 0.0326274170, 0.0014211964, -0.0854686698, -0.0049904787, -0.0173285209, -0.0618112485, -0.0220041764, -0.0485418129, 0.0127972605, -0.0217266389, -0.0421818548, -0.0370786310, -0.0048641191, 0.0118177844, -0.0310540046, 0.0584979024, -0.0671271038, -0.0625415941, 0.0907467347, 0.0292847898, 0.0516452821, 0.0418572939, -0.0231215776, -0.0597905732, -0.0476182268, 0.0672259950, -0.0118274665, 0.0525375559, -0.0114175570, 0.0162232026, -0.0179596662, -0.0064540208, -0.0125364427, 0.0121687943, -0.0176385470, -0.0416131528, -0.0301045893, -0.0295875815, -0.0368822723, -0.0580260750, 0.0256716414, -0.0540169321, 0.0289643483, 0.0206841067, 0.0068502255, -0.0240645643, -0.0803020429, -0.0310270780, -0.0376438329, 0.0514542131, -0.0193011837, 0.0501698368, -0.0719392326, -0.0530685139, -0.0249829054, -0.0897353860, -0.0115869278, -0.0161643011, -0.0393809983, 0.0577764528, 0.0898674889, -0.0674228018, 0.0571119234, -0.0054409759, -0.0378431534, -0.0076539762, 0.0453957276, -0.0253094380, -0.0409467210, 0.0262272918, 0.0122933349, 0.0008765772, -0.0201696574, -0.0633877216, 0.0170140645, 0.0569302329, 0.0231538008, -0.0473735083, -0.0016218674, -0.0436183214, 0.0325131597, -0.0259798065, 0.0408663310, 0.1035736492, 0.0771645089, 0.0018943544, -0.0034410818, -0.0004825838, -0.0296144526, -0.0923584230, -0.0408324500, 0.0625609011, 0.0312112514, -0.0652201467, 0.0885860783, -0.0009180987, 0.0099314597, -0.0415775230, -0.1150800473, -0.0289287390, -0.0623125491, -0.0511887296, -0.0272029060, -0.0877497841, -0.0126071933, 0.1089213989, -0.1126529438, -0.0652599343, -0.0585700454, -0.0787192210, 0.0357734855, -0.0497030323, -0.0776015096, -0.0206357528, 0.0751063817, -0.0452209877, 0.0191275266, 0.0494135468, 0.0086847416, -0.0109457906, -0.0019755101, -0.0212623977, 0.0938753948, -0.0795024187, -0.0349474114, -0.0188539301, 0.0611434473, -0.0510376284, -0.0277698677, -0.0060934620, -0.0679258588, -0.0851081148, 0.0069791505, -0.0319442875, -0.0658024187, 0.0785660734, 0.0569317850, -0.0397615613, 0.0712927376, 0.0099820545, -0.0307217150, -0.0102828107, 0.0165184584, 0.0176021529, -0.0470111671, -0.0038030980, 0.1369083639, 0.0424948858, 0.0802710227, -0.0236521745, -0.0075204515, 0.0021863778, -0.0131055179, 0.0953062189, 0.0887316471, -0.0304053260, 0.0425223071, -0.0572987561, -0.0628723869, -0.0125299870, -0.1143679265, 0.0612818032, -0.0093448266, -0.0025432113, -0.0162209364, -0.0150543782, 0.0885775848, 0.1083707516, 0.0172763600, -0.0091922135, 0.0112162069, 0.0876692579, -0.0216454743, 0.0770598784, 0.0057913748, 0.0453590756, 0.0641328480, -0.0106582117, 0.0293585253, -0.0514309994, 0.0633858342, -0.0120226179, 0.1299703124, -0.0831964038, 0.0415510847, -0.0601995211, -0.0022050753, -0.0156991832, -0.0466315311, -0.0358719959, -0.0359882982, -0.0245345956, -0.0259062518, -0.0122368863, 0.0331078538, 0.0228359667, 0.0011938238, 0.0165851911, -0.0441610512, 0.0327935140, -0.0330879309, -0.0673290911, -0.0427527177, -0.0122200525, 0.0081226629, -0.0194435922, -0.0725668384, 0.0388148177, -0.0900993624, 0.0493253121, 0.0720847036, 0.0323487110, 0.0417025469, -0.0199849942, 0.0430340611, 0.0533399965, -0.0399196490, 0.0188156771, 0.0242029268, 0.0166301190, -0.0420553303, -0.0936722540, 0.0032725015, 0.0787605349, -0.0310047282, 0.0315556416, -0.0699889630, 0.1011159109, 0.0556080611, 0.0649600143, -0.0684783534, -0.0649663846, 0.1580491424, 0.0123367068, 0.0133704849, 0.0143142621, 0.0097964156, -0.0286459490, 0.1498984562, -0.0203793983, 0.0283847467, -0.0115744841, 0.0216943140, -0.0093683194, 0.0136007025, 0.0749994362, -0.0325435209, 0.0202583692, -0.0492410500, -0.0491333566, 0.0087122438, 0.0214735110, -0.1595805322, 0.0564301888, 0.0555279197, 0.0039252329, -0.1055209522, 0.0288061526, 0.0184176021, 0.0734933222, -0.0620437355, 0.0359569239, -0.0096995548, -0.0740762738, -0.0790882409, -0.0135686422, -0.0279212517, 0.0181302748, -0.0152021434, -0.0098455462, -0.0694166029, -0.0737289446, -0.1294965088, -0.0371858625, -0.0123202591, 0.0396237074, -0.0394866014, -0.0491254267, -0.0543898448, -0.0018259337, 0.0019478411, 0.0089331171, 0.0222218525, 0.0056796300, -0.0853710489, -0.0537940653, -0.0736385540, 0.0130866693, 0.0970512084, 0.0511662609, 0.0727653879, 0.1173730860, -0.0504921785, -0.0190177023, -0.0251874074, -0.0005684360, 0.0545232504, -0.0048261491, -0.0103023216, 0.0097583908, -0.0279150211, 0.0749696913, 0.0647224352, -0.0137781268, -0.0324648105, -0.0878028355, 0.0004667003, 0.0465877261, 0.0271546119, -0.0286676034, -0.0009614484, 0.0247733981, -0.0032393703, -0.0100554537, 0.1134691586, 0.0656993955, -0.0631430151, -0.0228839332, 0.0349727117, 0.0190969282, 0.0342747498, -0.0717822380, 0.0164705865, 0.0428406520, -0.0097544675, -0.0157838841, -0.1066560176, -0.0022363818, 0.0643025008, 0.0256893570, -0.0128748307, 0.0387917136, 0.0271531560, -0.0375292805, -0.1083594397, 0.0517598760, -0.0148453137, 0.0004712751, 0.0403161044, -0.0421318536, 0.0831229953, -0.0217658077, 0.0637240815, -0.1312502371, 0.0144725336, -0.0065567230, 0.0498202951, -0.0031706048, -0.0172231254, 0.0295899654, -0.0009213935, -0.0138174764, 0.0053113108, -0.0637519348, 0.1138548499, -0.0014632259, 0.0062048043, -0.0395466042, -0.1050932054, 0.0169730219, -0.0068436533, 0.0356252835, -0.0286955375, -0.0739430424, 0.0340602648, -0.0576702409, -0.0327115535, -0.0840514438, -0.0571768732, -0.0259979114, -0.0113145225, -0.0275232941, -0.0294753789, 0.0065344989, 0.0131652310, -0.0246617836, -0.0448589669, 0.0085022689, 0.0868634655, -0.0417648393, 0.0416426127, -0.0117947230, 0.0556655064, 0.1459873161, 0.0330705321, 0.0313273488, -0.0505537761, -0.0132440607, -0.0181470850, 0.0138108793, 0.0529300071, 0.0425647099, 0.0561444386, -0.0028484449, 0.1095538654, 0.0056462037, 0.0234100599, 0.0018761335, 0.0581773294, 0.0158127958, -0.0328336928, -0.0039835280, -0.0126970660, -0.0219559216, -0.0170982645, 0.0417174671, 0.0202109577, 0.0694607451, -0.0198729719, 0.0178250899, 0.0293356439, -0.0257717473, 0.0702299442, -0.0411566951, -0.0016649576, -0.0475220432, -0.0413618119, -0.0213289683, -0.1063258575, -0.0840433230, -0.0544909946, 0.0595821043, -0.0225442957, -0.0550862792, 0.0433518297, 0.0532743401, -0.0756878744, -0.0282023327, -0.0286588789, -0.0220963323, -0.0369895028, 0.0010808886, 0.0480974472, 0.0198019010, 0.0710547169, -0.0477133166, 0.0408725524, 0.0606006316, -0.0901234042, 0.0542244065, -0.0447177422, -0.0845162416, 0.1162908444, -0.0804709798, -0.0462000846, 0.0086431792, -0.0114856822, 0.1364595558, 0.0126970113, -0.0036202513, 0.0066365329, -0.0316848488, 0.0002942161, 0.0497996489, -0.0007810243, -0.0009001511, 0.0204696708, -0.0492225951, -0.0417121822, 0.0259556777, -0.0241262004, 0.0274866939, -0.0419463267, -0.0266022898, 0.0590232631, 0.0277592319, -0.0300892492, -0.0582573808, 0.0588297653, -0.0673966715, 0.0324104363, 0.0785298848, -0.0077869361, -0.0549089502, 0.0465103742, 0.0410735694, 0.0264692455, -0.0015916955, 0.0177257320, -0.0353709010, -0.0218167474, -0.0072013080, 0.0036201060, -0.0219657364, -0.0179169683, -0.0284709956, 0.0252107350, -0.0300763750, 0.0267934930, 0.0751101498, 0.0075242566, -0.0208025893, 0.0091062336, 0.0050155284, -0.0758001972, 0.1051405149, -0.0896817807, 0.0358902657, 0.0389602670, -0.0676666607, 0.0041825936, 0.0206274624, -0.0536451839, 0.0069081756, 0.0336111985, -0.0667432226, -0.0213873831, 0.0359604143, -0.0009437048, -0.0225915289, -0.0339848763, -0.0497634672, -0.0163672654, 0.0355748019, 0.0940857994, -0.0339772081, -0.0833774929, -0.0170434660, 0.0137544865, -0.0231550122, 0.0162723460, 0.0432408413, -0.0529113614, 0.0092215264, 0.0015493870, -0.0117497589, -0.0213335534, 0.0442194620, 0.0080053863, 0.1218389588, -0.0326301498, 0.0463477704, -0.0193114390, 0.0448663078, -0.0790991524, 0.0113059255, 0.0260284358, 0.0512881959, -0.0220055443, -0.0481860736, -0.0049172451, 0.0513009925, -0.0321486491, -0.1050229836, 0.0725034467, 0.0508763707, 0.0156440413, -0.1070360301, 0.0039034142, 0.0607598449, 0.0642163179, 0.0637133527, -0.0029785670, -0.0366022648, -0.0103593824, 0.0177737303, 0.0074063351, -0.0310099962, 0.0194105253, 0.0871252747, -0.0003210046, -0.0069118969, 0.0135792249, -0.0094049383, -0.0215541537, 0.0309212006, 0.0557250178, -0.1585758944, 0.0804382394, 0.0139858748, -0.0307695814, -0.0339438164, 0.0217276670, -0.0239065694, 0.0376418067, -0.0390991154, -0.0333548249, 0.0044876380, 0.0530529701, -0.0570183524, 0.0453821961, 0.0344882168, -0.1099299313, -0.0210334437, 0.0496352208, 0.0360158217, -0.0352412844, -0.0600164884, -0.0281196613, 0.0051725062, -0.0524845407, 0.0096908351, 0.1033898556, -0.0076825252, -0.0134182041, -0.0361935715, -0.0375417061, -0.0778576638, -0.0884062425, 0.0062556430, -0.0452070623, 0.0107386584, -0.0071450456, -0.0426603284, 0.0160711673, 0.0306455482, -0.0490364330, -0.0771116439, 0.0028350798, -0.0893944157, -0.0162879203, 0.0195186984, 0.0173995786, 0.0279058752, -0.0415890826, 0.0162999477, 0.0846368755, 0.1325940673, -0.0097849958, 0.0582374647, 0.0037383542, 0.1129117596, -0.0198418837, -0.0526476937, -0.0107523634, 0.0011940814, -0.0019333193, 0.0673596136, 0.0268491793, 0.0731188876, 0.0356628266, 0.0432494777, 0.0273316394, 0.0275972346, -0.0124390688, -0.0599307502, 0.0354555319, -0.0633243003, 0.0237262399, 0.0213158354, 0.0050621459, -0.0676773621, 0.0022273630, 0.0067119936, -0.0202360520, -0.0337858724, -0.0413203712, -0.0561738073, -0.0115007048, 0.0039546821, -0.0445941286, 0.0354366009, 0.0298236610, 0.0035979081, -0.0284180586, 0.0085330386, -0.0079467199, -0.0222253791, -0.0161111502, -0.0197958195, 0.0009603905, -0.1185287016, -0.0470052599, 0.0195504223, -0.0293229486, -0.0596235079, 0.1232494493, -0.0043903801, 0.0322086468, -0.0107022513, -0.0372536092, -0.0383577519, -0.1123826532, -0.0795460593, 0.0306836022, -0.0063144960, 0.0754213672, 0.0964874542, 0.0531276062, -0.0781387910, -0.0450725621, -0.0376228094, -0.0170155401, 0.0809855747, 0.0247730740, 0.0111920818, -0.0041390393, -0.0520079954, -0.0358851478, -0.0862563202, 0.0244219931, 0.0830458900, -0.0608464822, -0.0016464952, 0.0652992468, 0.0777837702, 0.0443152276, -0.0535498623, -0.0904120746, -0.0439351547, 0.0044172043, -0.0301905429, -0.0457393556, -0.0000455896, 0.0622360325, 0.0078103447, 0.0772694077, -0.0396259456, -0.0436920302, 0.0221235297, -0.0240657685, 0.0419886898, 0.0925571000, -0.0217283222, 0.0036596238, -0.0224160433, 0.0564512508, 0.0434338099, -0.0338808135, 0.0484268806, 0.0382478053, 0.0457781215, -0.0879142764, -0.0470978857, 0.0295225617, -0.0707005153, 0.0732897862, -0.0128527647, 0.0193043428, -0.0508096381, -0.0608105355, 0.0100333445, -0.0606277989, 0.0210875017, 0.0987422633, 0.0045007822, -0.0044704124, 0.0161051435, -0.0086481794, 0.0652630845, -0.0532070220, -0.0382630845, 0.0368617494, -0.0365731062, -0.0124206015, -0.0210470970, -0.0001932864, 0.0418053644, 0.0430210268, -0.0703912982, -0.0263489389, 0.0503016754, -0.0028143267, 0.0788306949, -0.0310512650, 0.0232157417, -0.0870663721, -0.0077198065, 0.0389451466, 0.0717189405, 0.0700005983, 0.0601399755, 0.0205418290, 0.0854861676, -0.1616337735, 0.0362811186, 0.0116164876, -0.0230096330, -0.1067405384, 0.0282457839, -0.1345157136, -0.0005534932, -0.0037107392, -0.0065510975, 0.0494126234, 0.0167861752, 0.0947074565, 0.0250644282, 0.0331149879, 0.0038686876, -0.0536044867, -0.0077584886, 0.0095805004, -0.0649442720, -0.0297017314, -0.0290447389, 0.0934841120, 0.0115973270, 0.0647183080, 0.0134348744, 0.0194806370, 0.0170938371, -0.0891831382, 0.1038119693, 0.0533104335, 0.0364307199, -0.0130313584, 0.0165037217, -0.0128602490, -0.0777977325, -0.0373811449, 0.0438658633, -0.0091480072, -0.0039409445, 0.0893966442, -0.0048689880, 0.0525668667, -0.0505326875, -0.0469464075, 0.0629802378, 0.0324631311, 0.0468700922, -0.0287417522, 0.0031492912, 0.0252404800, 0.0465878671, -0.0133515804, -0.0146178013, -0.0018701931, 0.0195090311, 0.0782586216, -0.0622144806, 0.0840597701, 0.0015014023, -0.0120416935, 0.0191218638, 0.0637844894, -0.0015436890, -0.0128782211, -0.0060290036, -0.0674835583, -0.0079320930, 0.0562820147, 0.0353741274, 0.0608837229, -0.0063457098, 0.0050097589, 0.0537219019, 0.0180625588, 0.0031425538, -0.0034650300, 0.0480857471, -0.0177074484, 0.0845275839, 0.0072711685, -0.0335480261, -0.0504134163, 0.0132780084, -0.0470391585, 0.0181356041, -0.0089004129, -0.0309654105, 0.1010996889, 0.0236166667, -0.0847387525, -0.0381398550, -0.0759648931, 0.0470900488, -0.0411674282, 0.1300730963, -0.0204311456, -0.0658974587, -0.0269753075, -0.0877057028, 0.0036235634, -0.0529665655, -0.0493367158, -0.0198789809, -0.0635061731, -0.0260697978, -0.1249331976, 0.0069742748, 0.0324889537, 0.0812426140, 0.0222139460, -0.0116185370, -0.0375482994, -0.0135360609, 0.0151182297, 0.0100360152, -0.0754336293, -0.0116058773, 0.0053406263, -0.0261076219, -0.0370308788, -0.0004446848, -0.0134191801, -0.0006051372, 0.0517355353, 0.0470119545, -0.0566817993, 0.0336404947, -0.0066171262, 0.0342710480, 0.0306674693, 0.0418994247, 0.0455239595, -0.0457930097, 0.0693585098, 0.0285095911, 0.0006128642, -0.0341150144, -0.0820160852, -0.1045014175, 0.0032692631, 0.0608735643, 0.0682714707, -0.0191193766, 0.0510027235, 0.0915651986, 0.0390788129, 0.0132893099, -0.0331302774, 0.0638477131, 0.0532700583, 0.0253523076, -0.0263146370, 0.0825252913, -0.0961826680, -0.0005607972, 0.0941117851, -0.0361598162, -0.0145230505, -0.0090850556, 0.0326499153, 0.0755130673, -0.0008394349, -0.0113204389, 0.0060227875, -0.0114331848, -0.0587140791, 0.0538027978, -0.0292626264, 0.0528308059, -0.0272391658, 0.0482378071, -0.0348078137, -0.0598177992, -0.0035188569, -0.0011970113, 0.0555504301, -0.0231005101, -0.0463129189, 0.0606010582, -0.0204465548, 0.0298642875, -0.1118576524, 0.0315002729, -0.1163410893, 0.0298262199, 0.0060026696, -0.0273085917, -0.0021841266, -0.1038100793, 0.0184509248, 0.0707961752, 0.0196837675, 0.0052870902, -0.0362958930, -0.0550268357, 0.0854912559, 0.0342313412, 0.0491092396, -0.0239111742, -0.0537110087, -0.0496749518, 0.0060507594, -0.0618225319, -0.0055631541, 0.0113374995, -0.0371226588, 0.0982817536, -0.0658630091, 0.0600744241, -0.0071175760, 0.0391098046, -0.0600353038, 0.1101653820, 0.0506705517, 0.0326151393, 0.0590945803, -0.0059847110, 0.0885710361, -0.0177311100, -0.0641577632, -0.0145048973, 0.0184594933, -0.0306474039, -0.0624488586, -0.0606270035, 0.0471859050, -0.0476126939, -0.0400854628, -0.0056094680, 0.0281987979, 0.0644179975, 0.0432451720, -0.0483712086, 0.0956155906, -0.0994987157, 0.0242407137, -0.0414765760, 0.0387041468, 0.0079782794, -0.0026996602, -0.0358693967, 0.0421769203, 0.0687991219, 0.0181339415, -0.0020773249, 0.0020320504, 0.0506450841, -0.0094395700, 0.0426309833, -0.0500148750, 0.0279304936, 0.0069889483, 0.0335432483, -0.0853214448, -0.0099104663, 0.0392864777, 0.0357671226, -0.0972613244, 0.0414447686, -0.0401771004, -0.0725511055, -0.0493344047, -0.0505877426, 0.1577298774, -0.0467176027, 0.0521428870, 0.0321397936, -0.0723798818, -0.1292833975, -0.0140642660, -0.0492570610, -0.0613517195, -0.0313419923, 0.0807769625, -0.0767340342, -0.0306043983, 0.0082243827, -0.0267625475, 0.0139898903, 0.0426181268, 0.0634985785, 0.0513936088, -0.0286201116, 0.0393641026, -0.1434287436, -0.0117341330, -0.0808095021, 0.0267155878, 0.1164627443, -0.0840759454, 0.0234842895, -0.0317493617, -0.1361528562, -0.0234494303, 0.0228818131, -0.0008197266, 0.0995701011, 0.0230448594, -0.0625889429, -0.0263863403, 0.0062609274, 0.0253383207, -0.0307510686, 0.0238071375, 0.0235945496, 0.0505462070, 0.0073093973, 0.0524343378, -0.0466948775, 0.0302880920, -0.0404587278, -0.0078252264, -0.0719514354, 0.0187371815, -0.0064093859, 0.0770924552, 0.0402072136, -0.0916543058, 0.0104302422, -0.0270848621, -0.0458356357, -0.0431360131, 0.0753456942, 0.0219234964, 0.0649508906, 0.0455605650, -0.0038065747, 0.0007215884, -0.0363722061, 0.0003867457, 0.0917702281, -0.0013968314, 0.0095635220, -0.0760832430, -0.0799853674, -0.0206145202, -0.0267087361, 0.0331140923, 0.0309517561, 0.0176940744, -0.0941903097, -0.0240592354, -0.0266601404, -0.0767100396, 0.0853985822, 0.0530706092, 0.0359910716, -0.0065755856, 0.0308746906, 0.0510712799, 0.0137479210, 0.0530412459, 0.0426787475, 0.0968276500, 0.0809327883, -0.0284189695, -0.0147701310, 0.0422239432, -0.0328086827, -0.0387598397, 0.0860544301, 0.0526663305, -0.0169035925, 0.0024488456, 0.0585563865, 0.0424283003, 0.0767189431, 0.0447630431, 0.0374758296, -0.0092819213, -0.0604491643, -0.0216158052, -0.0012955664, -0.0099940163, -0.1042779202, -0.0229660746, -0.0148680839, -0.0805030041, 0.0931706608, -0.0358994779, 0.0066888618, 0.0139928975, -0.0213158084, 0.0496079540, 0.0111260508, 0.1043306546, 0.0337560668, 0.0124906901, -0.0478263911, -0.0336255530, -0.0746390878, -0.0079171762, 0.0157875089, -0.0977389101, -0.0717486787, 0.0472620250, 0.0128448248, 0.0690450102, -0.0503379048, -0.0045779491, 0.0844727148, -0.0445960353, 0.0352604156, -0.0426601522, 0.0479649758, -0.0208170209, 0.0536677280, 0.0487409198, -0.0879145856, -0.0479800893, -0.0160660078, 0.0176923427, 0.0631326420, -0.0028902882, 0.0694693764, -0.1417600557, -0.0743274652, 0.0314545693, -0.0602240895, 0.0902857922, 0.0210523863, 0.0391717332, 0.0871645014, -0.0075924539, -0.0234666352, -0.0377551753, 0.0019303048, 0.0106010304, 0.0991240695, -0.0153684964, 0.1083063635, 0.0145129464, 0.0689401248, -0.0109242801, 0.0396162983, 0.0158864889, -0.0183724581, -0.0716754833, 0.0054928552, 0.0373270709, -0.0523409764, -0.0510905574, -0.0223593195, 0.0266721230, -0.0600789354, -0.0744466239, 0.0115380701, 0.0375030052, -0.0771627985, 0.0549267217, 0.0335132637, 0.0377849765, -0.0608017124, 0.0232641202, 0.0444935732, 0.0008050928, -0.0360008720, 0.0221937690, -0.0242624670, 0.1489822130, -0.0048823510, -0.0616764369, 0.0578587361, 0.0230243375, 0.0504680357, 0.0362041559, 0.1085490252, -0.0290190933, 0.0615631157, 0.0773028271, 0.1031486857, -0.0760978789, 0.0668790307, 0.0341174171, -0.0137777442, -0.0110272463, -0.1145005616, -0.0359556039, 0.0299023639, 0.0545836860, 0.1028341949, 0.0767373285, 0.1433826724, -0.0383279609, 0.0795626744, 0.0314545018, -0.0035028972, -0.0250158837, -0.0381346880, 0.0626156764, -0.0852100688, 0.0408341475, 0.0837575620, 0.0193410620, 0.0885538320, -0.0013767929, 0.0865431305, 0.0498353092, 0.1054907236, 0.0226325345, 0.0276429255, 0.0139292197, 0.0413890931, -0.0634472117, -0.0507950157, -0.0409386574, -0.0385986418, -0.0209530599, -0.0382275719, 0.0902530621, 0.0399067772, -0.0607288032, -0.0721333920, -0.0177831560, -0.0050219014, -0.0463899157, 0.0626572640, 0.0592043432, -0.0063657976, -0.0837708584, -0.0186015015, 0.0986863770, 0.0678086198, 0.0637213754, -0.0502712025, 0.1909118104, 0.0059780899, 0.0536269910, -0.0123449854, -0.0560906850, 0.0207413893, 0.0069077171, 0.0417734203, -0.0320699127, 0.0508203644, 0.0595796754, 0.0269112824, -0.0022064376, -0.0583587386, -0.0352453409, 0.0171178306, 0.0644821511, 0.1544229367, 0.0028401541, -0.0204979996, 0.0679768684, 0.1059274185, 0.0121390086, -0.0066489849, 0.0229145014, -0.0962819496, -0.0526706177, -0.0375090971, 0.0127385117, 0.0493433646, -0.0793004769, -0.0035436083, 0.0521898051, -0.0401905311, 0.0358825921, 0.0304463006, 0.0202757181, -0.0131532870, 0.0304822591, 0.0138926175, 0.1085355783, -0.0421321679, -0.0270525737, 0.1358564260, -0.0130035199, -0.0794028903, 0.0251995744, -0.0544086118, 0.0682877832, 0.0130790416, -0.0067065965, 0.0062333149, 0.0061475056, -0.0521610777, 0.0024680494, -0.0034728041, 0.0251395054, 0.0899734446, 0.0171311114, -0.0035392011, 0.0297672372, -0.0101701727, 0.0121738622, -0.0300373383, -0.1149618844, 0.0868738069, 0.0916861619, 0.0216738938, 0.0317558942, -0.0794931234, 0.0012263730, -0.0731717787, -0.0090178952, -0.0540653667, -0.0528358452, 0.0927727607, -0.0064294464, 0.0803895823, 0.0446164805, -0.0645871662, -0.0683727995, -0.0538324013, 0.0030532992, -0.0273458603, -0.0558922472, -0.0233783253, 0.0608177352, -0.0365346385, 0.0360765420, 0.0105851401, 0.0709851393, 0.0265440864, 0.0647671483, 0.0216398723, -0.0081809308, -0.0443445943, 0.1080044775, -0.0200087235, -0.0423147439, -0.0246095986, -0.0140444473, -0.0379436458, -0.0312870339, 0.0111105364, -0.0916510081, -0.0504806533, -0.0536853208, -0.0032853414, -0.0071845733, -0.0576420479, 0.0656131172, 0.0084516866, 0.0045411911, 0.0247097413, -0.0785490545, 0.0777194888, -0.0641136599, 0.0087761771, 0.0383624229, 0.0425784727, 0.0413211200, 0.0420640114, 0.0512574482, 0.0461046769, 0.0254206057, 0.0530872107, -0.0028767088, -0.0013772979, 0.0846832832, -0.0084999195, 0.0460619955, 0.0266390152, -0.0574429703, 0.0525843460, 0.0370348908, 0.0206874606, -0.0454497497, 0.0151646932, -0.0623374214, 0.0088909193, -0.0541761191, -0.0909145094, -0.0133182795, 0.0663772833, 0.0678762243, 0.0409543642, -0.0164717860, 0.0339317792, 0.0124749617, 0.0595303535, 0.0671010743, -0.0216642780, -0.0366821475, 0.0224925192, -0.0728823133, -0.0033151104, 0.0162022958, -0.0083426912, -0.0590236104, 0.0074105290, 0.0243345050, 0.0063624243, -0.0065093611, 0.0479782566, -0.0584181950, 0.0050004396, 0.0214679770, 0.0587604363, 0.0593008528, -0.0330580675, 0.0096023009, 0.0489267438, -0.0160793787, -0.0219947676, -0.0045818130, -0.0312059595, 0.0137149628, 0.0048601866, 0.0751610883, -0.0128950267, 0.0536880230, 0.0537950131, 0.0421584483, 0.0097826365, -0.0049290353, -0.0096262658, 0.0604079584, -0.0479000204, -0.0389851386, -0.0018333393, 0.1164310172, 0.0527139144, 0.0186010660, 0.0385271789, -0.0047461655, -0.0298238088, 0.0108493116, 0.0123341789, 0.0141813829, 0.0188102893, 0.0138149719, -0.0392574026, 0.1028192493, -0.0366606470, -0.0732896238, -0.0226923622, -0.0085805621, -0.0773167155, 0.0678135143, -0.0383336507, 0.0011322144, 0.0134189277, 0.0582434627, -0.0201162401, 0.0338800982, 0.0081115865, -0.0115007774, 0.0515335700, -0.0240380847, -0.0410123745, 0.0055552284, -0.0125895920, -0.0105674377, 0.0066108133, -0.0748883897, 0.0844136680, 0.0358382059, 0.0042555601, -0.0981737703, -0.0084235697, 0.0391561815, -0.0432803318, 0.0741117724, -0.0529322415, 0.0664741959, 0.0001619413, 0.0333774393, -0.0220335807, -0.0153756487, 0.0144417420, 0.0158040456, 0.0350764855, 0.0358009409, 0.0352897334, 0.0150803157, 0.0980806383, -0.0557597964, -0.0248403979, 0.0171245129, 0.0152996538, 0.0249489405, 0.0645043595, 0.0590458116, 0.0143545615, 0.0223720475, 0.0486664932, -0.0152508598, -0.0506704109, -0.0386801315, 0.0509658427, -0.0332539625, -0.0180059626, -0.0203768073, 0.0202423778, 0.0380131207, 0.0687639809, -0.0153267179, -0.0023919298, -0.0375133264, -0.1204671932, -0.0346777353, -0.0508865286, -0.0888009749, -0.0606997820, -0.0059335211, -0.0812179862, 0.0373455347, -0.0846073383, 0.0613273800, -0.0388877022, 0.0215406184, 0.0102026865, -0.0184902450, 0.0698211040, 0.0340700241, -0.0030531784, 0.0013741515, 0.0001936486, 0.0129070971, 0.0785959736, -0.0414453928, -0.0042605283, -0.0550126246, 0.0744287090, 0.0543369505, -0.0413532471, 0.0229090500, -0.0551622123, 0.0169436302, 0.0518354156, 0.0329326974, 0.0711791481, 0.0627297695, -0.0141287779, 0.0194657530, -0.0568436220, -0.0649963029, 0.0362190258, -0.0923175043, -0.0107802260, -0.0526306097, -0.0517496619, -0.0068159128, 0.0211790278, 0.0242096682, 0.0051941127, 0.0018760557, 0.0075983146, -0.0536432269, 0.0401134128, -0.0196945489, 0.0151057161, -0.0134840225, 0.0488953577, -0.0957311549, -0.0384356314, 0.0173186679, -0.0048751039, -0.1055580366, -0.0919108395, 0.0415601169, 0.0628304656, 0.0223116719, -0.0253781099, 0.0297250784, -0.0260289300, -0.0199842135, 0.0339291411, 0.0009898690, 0.0849596884, 0.0952164081, 0.0561538122, -0.0229776821, 0.0758342742, -0.0142286612, -0.0427605193, 0.0546066695, -0.0292890926, -0.1010829016, 0.0846913785, 0.0510095951, 0.0326211189, -0.0852777323, 0.0859961799, -0.0013617636, -0.0725382182, -0.0277416453, 0.0661981533, -0.0839790791, 0.0053955325, -0.0105913243, -0.0300287251, -0.0204744786, -0.0096840019, 0.0136212788, -0.0523737859, -0.0125423464, -0.0370730861, 0.0131881544, -0.0527734026, -0.0396706034, -0.0067421894, 0.0386944606, -0.0303762045, 0.0056923273, 0.0041434662, 0.0798461437, -0.0407843134, 0.0655296624, 0.0492420388, -0.0621035005, -0.0344589720, 0.0111293156, -0.0431715543, 0.1085794778, -0.0156501131, 0.0003979016, 0.0648333538, 0.0211075032, -0.0185432606, 0.0347737881, 0.0610526623, -0.0164806773, 0.0027736635, 0.0395289479, 0.0597291628, 0.0550840805, 0.0573631034, 0.0383043368, -0.0067613699, -0.0721417658, 0.0697572498, -0.0890224755, 0.1401010590, -0.0649565493, 0.0236564757, 0.0230512111, -0.0828036015, 0.0333563691, -0.0387628016, 0.0276457503, -0.0490724953, -0.1048828033, 0.0048797455, -0.0304505205, -0.0283151430, -0.0367128528, 0.0338684587, -0.0897744951, -0.0936900783, 0.0840542192, -0.0315131356, 0.0670508955, 0.0705752222, -0.0054695505, -0.0634901989, -0.0284632384, 0.0049340293, 0.0206475742, 0.0067536441, 0.0242045533, 0.0496647303, 0.0355864352, 0.1076380305, 0.0134370818, -0.0081140758, 0.0924404260, 0.0173671016, -0.0163394224, -0.0305085298, -0.0442626803, 0.0704046987, -0.0056349375, 0.0270737839, -0.0303221478, -0.0169135086, -0.0344806900, 0.0314056348, -0.0208826899, 0.1023372430, -0.0591317902, -0.0332127397, 0.0519002015, -0.0305958075, 0.0501115512, -0.0746388033, -0.0853506513, 0.0384451026, -0.0058944292, -0.0458694317, 0.0295332847, 0.0406878878, 0.0604340586, 0.0414306006, -0.0257697439, 0.0070225473, -0.0300876251, -0.0515349699, 0.0074742945, 0.0186988998, 0.0737796324, -0.0319900755, 0.0454142014, -0.0619107329, -0.0112345658, 0.0247262376, -0.0240722131, -0.0117519959, 0.0332964283, 0.0388912759, 0.0606932491, -0.0014449143, 0.0703262978, 0.0242767480, -0.0837221783, -0.0240579410, 0.0081488059, -0.0209350156, 0.0444134774, -0.0302052023, -0.0106714833, 0.0070063113, -0.0583945415, 0.0203414529, -0.0224976820, 0.0499589588, 0.0254428997, -0.0546885159, 0.0590686856, -0.0555566719, 0.0159897383, 0.0321270511, -0.0645395641, -0.0344155237, 0.0058609348, -0.0901102228, -0.0156114397, 0.0473682000, -0.0041650876, -0.0193468974, -0.0386575372, 0.0610296392, -0.0113423101, 0.0427318672, 0.0387296978, 0.0710668240, 0.0466216461, 0.0145628352, -0.0455726076, -0.0035367195, -0.0320345146, -0.0309681221, 0.0714031821, 0.0006923982, -0.0342268516, -0.0003250817, 0.0041138202, 0.0705296865, 0.0132849914, -0.0298454669, 0.0457241516, -0.0368808983, -0.0733107885, 0.1002582332, -0.0135358586, -0.0616692696, 0.0931493573, -0.0826443603, 0.0967684605, -0.0343658288, -0.0497859239, 0.0004849099, 0.0332906328, -0.0309218555, -0.1520820485, 0.0971435912, -0.0288544143, 0.0677722960, -0.0972938069, 0.0021758202, 0.0250201434, 0.0014345472, 0.0820020363, -0.0189036768, -0.0169954578, -0.0180863914, 0.0080719606, -0.0912884491, 0.0140452555, 0.0891447537, -0.0063942734, 0.0163594653, -0.0109890489, 0.1042290790, 0.0256469756, 0.0754745878, 0.0657287013, -0.0982901286, 0.0115624217, -0.0051042122, 0.0174618142, 0.0953542511, -0.0325401196, -0.0617806916, -0.0790587121, -0.0645210544, -0.0134557389, -0.0037895441, -0.0114764381, -0.0345199625, 0.0324262851, 0.0543138758, -0.0265410497, -0.0077403290, -0.0744305285, -0.0640426674, -0.0638865860, 0.0324080994, 0.0136140089, 0.0378925453, -0.0204737946, -0.0267300722, -0.0846954389, -0.0524778098, 0.0944892006, 0.0632730843, -0.0278392852, -0.0021169563, -0.0930997115, -0.0494970905, 0.0835051266, -0.0163078036, -0.0458330902, -0.0854759224, -0.0734936450, 0.0317299588, -0.0559860587, 0.0085617611, -0.0211664286, 0.0027778606, 0.0813052895, 0.0421249826, -0.0414211964, -0.0206295698, -0.0003176842, -0.0553489629, 0.0918351201, -0.0272808493, 0.0641712588, -0.0562551774, -0.0094560901, -0.0323965589, 0.0039094911, 0.0069002014, 0.0285390787, -0.0226868431, 0.0096243841, -0.0631819165, 0.0093411144, 0.1125410449, 0.0472181429, -0.0610254941, 0.1207834048, -0.0615626645, -0.0094303425, -0.0909794849, -0.1075478445, 0.0772102100, 0.0663853801, -0.0142249589, -0.0416279219, -0.0372405540, 0.0281714987, -0.0040404439, 0.0654302892, 0.0159107195, 0.0554963068, 0.0013221203, -0.0170610514, 0.0213877944, -0.0061692083, 0.0884902422, 0.0112610942, -0.0865966430, 0.0652552296, 0.0079975169, -0.0142998418, -0.0407942118, -0.0261569339, 0.0129356038, -0.0443682191, -0.0049872420, -0.0545341882, 0.0136186648, -0.0060669872, 0.0172062537, 0.0559725570, -0.0024000233, 0.0276313254, -0.1440369836, 0.0757523788, 0.0693118402, 0.0117439728, -0.0752909866, 0.0357146098, -0.0131191264, -0.0289740258, 0.0227944844, -0.0636866934, 0.0203368326, 0.0162639313, 0.0090417723, 0.1831835278, -0.0364325244, -0.0828733632, -0.0247203424, -0.0036925711, -0.0035501604, 0.0169938221, -0.0026715135, -0.0147516769, -0.0137280965, -0.0607820906, 0.0441298090, 0.0002697352, -0.0897232046, 0.0701299661, 0.0343760292, 0.0064586328, -0.0060021533, -0.0208913282, -0.0311607230, 0.0163896998, -0.0190532025, -0.0119684513, 0.0152197288, 0.0183654982, 0.0618426154, 0.0134134365, 0.0842543546, -0.0828253170, 0.0392892698, 0.0308275951, -0.0698144154, -0.0084322803, 0.0030690108, -0.0854951970, -0.0074550175, -0.0083006181, 0.0083007823, -0.0241054482, -0.0281904400, 0.0517918382, -0.0442569189, 0.0141885913, 0.0595686428, 0.0829553411, -0.0280930578, -0.0497807216, -0.0773363643, 0.0611974080, 0.0213636132, -0.0268661164, -0.0227436289, -0.0108746804, -0.0595711558, 0.0463403581, 0.1053673539, -0.0211215015, 0.0542634039, 0.0362973810, 0.0434636889, 0.0229715069, 0.0530055254, 0.0274031995, -0.0636440906, 0.0025554719, 0.0021337276, -0.0502828843, -0.0028913448, -0.0139397607, -0.0458475119, -0.0149797420, 0.0550099888, 0.0182139857, 0.0069737243, 0.0446812336, -0.0341581172, -0.0357322167, -0.0529158595, 0.0690330204, 0.0786976614, 0.0196248674, -0.0148872678, 0.0214354807, 0.0121774151, -0.0235204732, -0.0408541341, 0.0831819075, -0.0319191223, -0.0333230061, -0.0456318801, -0.0554698196, -0.0088274600, -0.0252392788, 0.0616307586, -0.0615707205, -0.0664511273, 0.0686147294, -0.0145566357, 0.0773171325, 0.0466305438, -0.0053981508, -0.0199134953, 0.0804110184, 0.0662071636, 0.0592397931, 0.0566580235, -0.0634446671, 0.0131535623, 0.0264735684, 0.0973790226, 0.0659161850, -0.0678024513, -0.0077920824, 0.0174876327, -0.0804321103, -0.0021465447, -0.0292781408, 0.0594934626, -0.0189739335, 0.0839997589, -0.0125037971, 0.0684528568, 0.0012515677, 0.0719700115, -0.0406010574, 0.1057043188, -0.0573568583, -0.0632717325, -0.0232042641, 0.0541513901, -0.0139017791, 0.0120231496, 0.1135547027, -0.0144353912, 0.0365393352, -0.0363257685, 0.0126595419, 0.0514299982, 0.0476193364, 0.0004194608, 0.0595402511, 0.0628511450, -0.0197194044, -0.0653219817, 0.0892991421, 0.0587129539, 0.0270189709, -0.0300790726, -0.0085716312, 0.0962958530, 0.0203472533, -0.0632658628, 0.0431383847, 0.0108984010, -0.0273033799, 0.0123617595, -0.0168186255, 0.0295903901, -0.0683407488, -0.0464440127, 0.0512736192, 0.0101905872, -0.0416479553, -0.0809807171, -0.0921125042, 0.0442246123, 0.0492481535, 0.0542359604, 0.0341370079, -0.0564430793, -0.0496850189, 0.0200551544, 0.0785164034, -0.0361833516, 0.0623586882, 0.0302748664, -0.0735283705, -0.0405964853, 0.0057884319, 0.0199095408, -0.0669808360, -0.0191479601, -0.0629049258, 0.0662519493, -0.0699692097, 0.0281745467, -0.0931443358, -0.0101312895, -0.0140595337, 0.1103101374, 0.0143566326, -0.0166370557, -0.0169268044, 0.0217924715, -0.0613382876, -0.0222593611, 0.0593418287, -0.0023859571, -0.0430388279, -0.0704692813, 0.0272570536, 0.0653510033, -0.0446630812, 0.0523604474, -0.0429723550, 0.1040097854, 0.0275150743, -0.0710686158, 0.0872111891, -0.0579456953, -0.0187566432, -0.0175174229, 0.0187465542, -0.0112536126, 0.0202501220, 0.0219965450, -0.0468834819, 0.0029389157, -0.0276338155, -0.0222902374, 0.0259223326, -0.0572606987, -0.0162147075, 0.0838177192, -0.0386089229, -0.0032018462, -0.0122850438, 0.0219321063, 0.0416379777, 0.0069075746, -0.0323937277, -0.0024865081, 0.0223240556, -0.0903106935, 0.0505573539, -0.0287652260, 0.0064148582, 0.0162255757, 0.0083909417, -0.0295839049, -0.0169587649, -0.0085871534, -0.0246434703, 0.0127907281, 0.0388920870, -0.1281610398, 0.0010982142, 0.0344732818, 0.0216439916, 0.0641025443, -0.0004098206, -0.0386410152, -0.0558619967, -0.0232039733, -0.0048172825, -0.0298529793, -0.0479875599, -0.0188248248, 0.0710504202, -0.0450047400, 0.0910134935, -0.0901263138, 0.0682100182, 0.0153975707, 0.0367972974, -0.0369000665, 0.0456420297, -0.0468343845, -0.0469274452, 0.0028876106, 0.0056052197, -0.0449627006, 0.0089430327, -0.0392403144, 0.0152430540, -0.0240362462, -0.0171665917, -0.0300398388, -0.0185865422, 0.0712542994, 0.0287697486, 0.0379372978, 0.0279633103, -0.0420450401, -0.0700059782, 0.0109691979, -0.0714992944, -0.0263270245, -0.0534392742, 0.0657099953, -0.0895333655, 0.0446950537, 0.0019797341, 0.0045285309, -0.0618430890, 0.0437630941, 0.0735930452, -0.0880704422, -0.0276887470, 0.0065453454, 0.0253915259, -0.0723267324, 0.0848890080, -0.0980339051, -0.0363876767, -0.0748625100, 0.0318547354, -0.0370710804, 0.0432698221, 0.0162941570, 0.0024673131, 0.0199433599, -0.0391498750, 0.0929533344, 0.0126957061, 0.0819957175, -0.0191372544, 0.0289660867, -0.0294799493, 0.0273334623, 0.0041872409, 0.0061712520, 0.0226178884, -0.0671450608, -0.0012840958, -0.0163451526, 0.0587083383, 0.0031436222, -0.0051340220, 0.0035400427, 0.0686163640, -0.0347540558, 0.0328238680, 0.0585634399, 0.0468923576, -0.0251266338, 0.0291754145, 0.0681606905, -0.0545269851, 0.0635977224, 0.0137267456, -0.0699487211, -0.0828980425, -0.0807482183, 0.0460921235, 0.0447898221, 0.0121698144, -0.0708502888, 0.0215690287, -0.0224570048, -0.0122991102, 0.0312928211, 0.0394614177, -0.0000388686, -0.0245366601, -0.0168261094, 0.0591086869, -0.0839387353, -0.0123321535, 0.1269154286, -0.0403331672, 0.0165225491, -0.0489723667, -0.0364587039, -0.0047374213, -0.0155930050, -0.0403988119, -0.0305104339, 0.0026330593, -0.1048119546, 0.0144575170, 0.0857560371, 0.0083103222, 0.0044925236, -0.0067412786, -0.0032368770, -0.0595241927, 0.0126838533, -0.0080235049, -0.0053655658, 0.0055522368, -0.0355727828, 0.0306517452, -0.0146294272, 0.0990856081, -0.0002527511, 0.0314258693, -0.0198924669, -0.0893228095, -0.0162700271, 0.0416006494, -0.0232678534, -0.0339137794, -0.0407633554, 0.0567859919, 0.0378863113, -0.0358132481, 0.0334284214, -0.0744106041, -0.0402050703, -0.0417000504, -0.0851866021, 0.0721203893, -0.1300983195, 0.0444100909, 0.0483432959, -0.1121257656, -0.0367335935, -0.0001285335, 0.1006270650, 0.0494354347, 0.0029626228, -0.0680282254, -0.0197761680, -0.0903053172, 0.0074166097, 0.0256112572, 0.0124079467, 0.0020501591, -0.0385463429, 0.0874534064, 0.0305450363, 0.0360079860, -0.0247966658, 0.1036297609, -0.0706560793, -0.0165080575, 0.0720600708, 0.0013101765, 0.0360794462, -0.0234134586, -0.0162296167, 0.0530637762, -0.0004264557, -0.0676632104, -0.0393432648, 0.0583650100, 0.0419557445, -0.0225406141, 0.0746689026, -0.0190209999, -0.0123027983, 0.0717332996, 0.0742031696, 0.0657726297, 0.0262785525, 0.0816179438, -0.0707484753, 0.0353809046, -0.0347784641, -0.0389740585, 0.0301800826, -0.0085536861, -0.0937984479, -0.0875134080, -0.0311314299, 0.0920061625, 0.0017347327, -0.0080174977, 0.0750565686, -0.0682110855, -0.0213816903, 0.0556618416, -0.0178526127, -0.0687392346, 0.0884047500, -0.0125491395, -0.0602543392, -0.0041458125, 0.0257226298, -0.0270184775, 0.0242717376, 0.0288654488, -0.0511968639, -0.1025809688, -0.0091404165, 0.0256464522, -0.0222997218, -0.1089316164, -0.0063596536, 0.0520868260, 0.0553558994, -0.0574688132, -0.0367394423, 0.0079004008, 0.0146494585, -0.0693356661, 0.0223593005, 0.0489886779, -0.0841010855, -0.0473836933, -0.0363589378, -0.0409684284, -0.0265527777, 0.0115747772, 0.0119128681, -0.0005119078, -0.0138094602, -0.0089614447, 0.0040737830, -0.0538427242, 0.0410652279, -0.0981832373, -0.0348350446, 0.0536485256, 0.0041630801, -0.0021267580, 0.0382872128, -0.1008020791, 0.0427342924, -0.0673905285, -0.0202321217, -0.0029278235, -0.0180280127, -0.0251615631, 0.0631807790, 0.0846396548, -0.0145857253, -0.0413001852, 0.0329399728, 0.0090445610, 0.0121092420, 0.0462176915, -0.0489841316, 0.0605861835, 0.0144398444, -0.0344826168, -0.0511784702, 0.1019438943, -0.0035534374, -0.0457297169, 0.0383256981, -0.0350883993, 0.0742090218, 0.0095657821, -0.0130808441, 0.0288739092, -0.0096599475, 0.0021284138, -0.0141159753, -0.1015472150, -0.0587207393, -0.0176088913, 0.0128889435, 0.0761822188, 0.0531319229, 0.0672696496, 0.0221235214, 0.0757026148, -0.0110943579, -0.0062804897, 0.0014793563, 0.0188562548, 0.0006581862, 0.1465329672, 0.0605276712, -0.0475935593, -0.0344707368, -0.0035343843, 0.0569688906, 0.0329336122, 0.1236446273, 0.0068718401, 0.0069832891, -0.0088142809, -0.0026930324, -0.0635904815, 0.0409637715, -0.0713723661, -0.0039310595, 0.0452534956, 0.0289653818, 0.0270642007, -0.0080400986, 0.0213887865, -0.0561537610, -0.0159790512, 0.0065327194, -0.0524941827, 0.0145316696, -0.0640963874, -0.0026952201, 0.0108027164, 0.0200517966, -0.0010056740, -0.0530622977, 0.0083237381, -0.0165708973, 0.0048031947, 0.0377861864, 0.0839360553, 0.0428407765, 0.0295332789, -0.0231946409, 0.0177764552, 0.0152732363, 0.0609384800, 0.0112313201, 0.0342465379, 0.0761033499, -0.0359842122, -0.0457848733, 0.0648664633, -0.0355328669, -0.0045383411, -0.0750762678, 0.0004302791, -0.0530384228, -0.0169338012, 0.0250283759, -0.0752426781, -0.0050799733, 0.0506137939, 0.0296585204, 0.0367033085, -0.0077786970, -0.0430672736, 0.0406229779, -0.0509983586, -0.0347897285, -0.0165582987, 0.0690700391, -0.0365964712, -0.0505503447, -0.0936627169, -0.0856057590, 0.0132488605, -0.1395866369, -0.0030525179, 0.0491778630, -0.0125994650, -0.0410029048, 0.0352646272, 0.0405299232, 0.0133852442, 0.0312985836, 0.0528982547, 0.0269975788, 0.0120616450, -0.0334535063, -0.0462924608, -0.1045982143, 0.0351257596, -0.0393113356, -0.0160705679, -0.0442287893, 0.0093046883, -0.0141156925, -0.0064526367, 0.0570769735, -0.0673417687, -0.0108807274, 0.0272908200, 0.0282595302, -0.0132171518, -0.0311679027, -0.0712191851, 0.0317657042, 0.0128088325, -0.0456223535, 0.0445872810, 0.0246574255, 0.0191601436, -0.0466592861, 0.0564444358, -0.0482976483, -0.0588134639, -0.0044314436, -0.0570637057, -0.0447466440, 0.1003933135, -0.0578248031, 0.0013792714, -0.0656993283, -0.0370928283, 0.0128611538, 0.0194145438, -0.0609326678, 0.0116926158, -0.0446388102, 0.0084259898, -0.0430536069, 0.0652516041, -0.0087637492, -0.0614260989, -0.0826502962, 0.0227678577, 0.0085115035, 0.0608257028, 0.0396638938, -0.0413847369, -0.0261346343, 0.0409839523, 0.1043758392, -0.0106614013, -0.0097604858, -0.0167958962, -0.1311933209, 0.0331553661, -0.0036934546, -0.0325896198, 0.0205629146, 0.0114892165, 0.0760002761, 0.0158957609, -0.0280073367, -0.0218608933, 0.1341212317, 0.0257018751, -0.0078438452, -0.0533635903, -0.0726484808, -0.0511562216, 0.1036056194, 0.0004225207, 0.0709350500, 0.0066344637, 0.0687013067, -0.1284361185, 0.0698380492, 0.0759264297, -0.0495513630, -0.0452393802, -0.0403906090, -0.0382858001, 0.1372563839, -0.0551134683, -0.0527621630, -0.0351128280, 0.0293884982, 0.0307040837, -0.0923662500, 0.0027124714, -0.0108595190, -0.0250688060, 0.0903670156, -0.0457749982, 0.0034978872, 0.0572294563, -0.0400632140, -0.0124007857, 0.0511922084, 0.0815319126, 0.0058091319, 0.0014093438, -0.0217119949, 0.0788587200, -0.0131648192, -0.0797843439, 0.0289963524, 0.0903854320, 0.0060547096, -0.0493143638, -0.1320218372, -0.0237917259, -0.0879801623, -0.0145389048, -0.0500036176, 0.0278046996, -0.0845850908, 0.0733689772, -0.0979475677, 0.0922288561, -0.0793257764, 0.0443522585, 0.0214717400, 0.0103904567, -0.0454163540, -0.0403336507, 0.0033247224, 0.0694766231, -0.0322923523, 0.0294377768, -0.0686861625, 0.0422893832, -0.0617713634, -0.0568336559, -0.0112463496, 0.0624361891, 0.0368064393, 0.0149229942, 0.0153225394, -0.0774104503, 0.0542964543, 0.0286352699, -0.0487950393, -0.0203824177, 0.0120978204, 0.0343366611, 0.0288622620, 0.0950807510, -0.0706014543, 0.0176305088, 0.0171406869, -0.0850899453, 0.0085166832, 0.0002221048, 0.0402876384, -0.0262803739, 0.0063846304, -0.0028921001, 0.0195229243, -0.0638232724, 0.0018711367, -0.0270193223, -0.0576979911, -0.0371566935, 0.1057325288, 0.0264701476, 0.0145468425, 0.0184095977, 0.0928433958, 0.0470571369, -0.0080668012, -0.0410866728, 0.0129376106, -0.1105041099, -0.0401743040, -0.1389333353, -0.0353772887, 0.0670061242, 0.0988640978, 0.0173876270, 0.1124395333, 0.1146523631, -0.0273750343, 0.0199528924, -0.0094491204, 0.0189347002, -0.0014961950, 0.0712500579, -0.0740378355, 0.0548082972, -0.0156245648, -0.0100396284, 0.0072709820, 0.0438205227, 0.0325094627, 0.0399648122, -0.0142102121, -0.0212901754, -0.0392719935, 0.0605774127, -0.0299242122, 0.0016542283, -0.0059862349, 0.0372431892, 0.0269869875, -0.0218526681, -0.0330982864, -0.0731342660, 0.0941997208, 0.0505690420, 0.0146804464, 0.0098726721, -0.0819763640, 0.0581182035, 0.1031262131, 0.0122039030, 0.0541508617, 0.0463360706, -0.0477580246, 0.0042500299, 0.0253160414, 0.0596175442, 0.0323884310, -0.0297235379, 0.0192897429, -0.0186917654, 0.1136131906, 0.0100608558, 0.0430573779, -0.0032822673, 0.0235319197, 0.0128238317, 0.0022461402, 0.0611153374, 0.0001114006, 0.0155445642, -0.0993318220, 0.0060941174, -0.0422927057, 0.0509887128, 0.0241007902, 0.0237764995, 0.0018536538, -0.0638597102, 0.0168164612, 0.0662525169, 0.0794154337, -0.0033632258, -0.0877762011, 0.0105629350, -0.0168703455, 0.0163246164, 0.0313132848, 0.1130448616, -0.0325626426, -0.0123265729, -0.0303477933, -0.0843609650, -0.0106834253, 0.0925474407, -0.0484750809, 0.0615954868, -0.0127153449, 0.0373966506, -0.0336342058, -0.0502868293, -0.0258370031, -0.0712619111, -0.0724295980, 0.0330510581, -0.0993137415, -0.0658850769, -0.1126527842, 0.0933385715, -0.0156680969, -0.0056497972, 0.0220061522, -0.0978643632, 0.0043064175, 0.0654295274, 0.0298446159, -0.0462502814, 0.0837794172, -0.0038819792, -0.0641177832, -0.0708689301, -0.0215466903, 0.0995728154, -0.0063247397, 0.0132577865, 0.0339920967, -0.0969325937, -0.0102729696, 0.0047852210, -0.0067411888, -0.0015606668, 0.0861794658, -0.0314059105, -0.0027386467, -0.0126304527, -0.0214129331, 0.0247753085, 0.0254716947, 0.1301057300, 0.0752960627, 0.0148459466, 0.0339992199, -0.0424634937, -0.0162825958, 0.0131639258, 0.0420206739, -0.0406503978, 0.0514104973, 0.1056726620, 0.0564660554, -0.0063103649, 0.0418919062, 0.0145516884, 0.0499239979, -0.0741216309, 0.0324807567, -0.0891624660, -0.0270103866, 0.0595308621, 0.0343968134, -0.0078100687, 0.0985802523, 0.0685638899, 0.0223020221, -0.0812936635, -0.0895198247, -0.0868577719, 0.0489240453, -0.0117958699, -0.0094982610, -0.1095736491, -0.0109272298, -0.1208874117, 0.0007602049, -0.0435852671, -0.0684704688, -0.0192743527, 0.0447413032, -0.0514367025, -0.0415596262, 0.0152791608, 0.1049517238, -0.0213555362, 0.0113580832, -0.0231668771, -0.0272563794, -0.0882214336, -0.0047112270, -0.0077455432, -0.0441194986, 0.0322393611, 0.0889822222, 0.0386762193, 0.0047491065, 0.0794529428, 0.0330130322, -0.0708246680, -0.0115140148, 0.0709903809, -0.0068733417, 0.0002882930, 0.0907076992, 0.0832147660, 0.0157715124, 0.0050255511, -0.0154568304, 0.0533009980, 0.0105729758, -0.0152068496, 0.0317872418, 0.0359042286, 0.0398357026, -0.0384970908, 0.0532143236, -0.0543366503, -0.0050497028, 0.0792144243, -0.0797213355, -0.0236152444, -0.0413646838, -0.0836023116, 0.0466664970, 0.0172436384, -0.0351402343, 0.0181266288, 0.0381422737, 0.0331839709, 0.0123101951, -0.0802004107, 0.0180170234, 0.0009753515, 0.0436005526, -0.0097169613, -0.0404911537, -0.0113951122, 0.1420355323, 0.0256593200, -0.0117966166, -0.0212175522, -0.0308352376, 0.0117620032, 0.0567847017, -0.1330712401, -0.0022794833, 0.1474366101, 0.1183382142, 0.0268653568, -0.0914055395, 0.0359801333, 0.0580891600, 0.0835230055, 0.0831263241, 0.0870155535, 0.0627643656, 0.0532110597, 0.0337775518, 0.0987548719, 0.0467543366, 0.0515215026, -0.0615842194, -0.1022132093, 0.0517878493, -0.0183484077, 0.0664295435, -0.0575383365, -0.0482587581, -0.0398983331, 0.0120189735, 0.0352608525, 0.0201247431, -0.0283058957, 0.1017687094, 0.0243360343, 0.0715498486, -0.0723237860, -0.0620561296, 0.0602903905, -0.0042415252, -0.0037301095, 0.0343833701, 0.0842336929, 0.0139376339, -0.0257505586, 0.0080258451, -0.0993676357, 0.0371344700, 0.0032965023, -0.0064885118, 0.0119954291, -0.0013656825, -0.0585801242, -0.0344552418, 0.0739573820, 0.0528352088, 0.0285294661, 0.0181319387, -0.0661174991, -0.0340111324, -0.0093983014, 0.0721672896, 0.0233201852, -0.0036265121, 0.0305818427, -0.0840943270, 0.0166342770, -0.0095940749, -0.0409966853, 0.0158082897, -0.0129088928, -0.0087148855, 0.0331554894, -0.0817234840, 0.0609268269, -0.0195895707, 0.0479075195, 0.0000497752, -0.1189519385, -0.0004872190, 0.0658344124, 0.0044272339, -0.0032255685, 0.0361745826, -0.0306872811, -0.0190509418, 0.0084052598, 0.0120604989, 0.0472981612, 0.0336870688, -0.0031374279, -0.0415508600, 0.0309122795, 0.0076462068, -0.0315194558, 0.0517262778, 0.0259137085, 0.0452677507, 0.0854320149, 0.0363419378, -0.0544554840, 0.0254348431, 0.0688784277, 0.0678268401, 0.0150901426, 0.0990044510, -0.0194074750, -0.0702640783, 0.0368916120, -0.0769625295, -0.0095859157, -0.0126117698, 0.0302956302, -0.0544360593, 0.0226580670, 0.0328372898, 0.0486981326, 0.0444746719, -0.0013427359, 0.0159458408, 0.0307055489, -0.0314014173, 0.0229223023, -0.0031706572, 0.0131150681, 0.0054607695, -0.0125982991, -0.1176795729, 0.0276340469, 0.0914100184, -0.0017272547, -0.1086017555, -0.0444608550, -0.0710767917, 0.0116133170, 0.0699446226, 0.0313741720, 0.0447795025, -0.0685386709, -0.0739992610, 0.0078943360, -0.0139490757, -0.0310423576, 0.0337017669, -0.0475344631, -0.0297281661, 0.0686077801, 0.0210750506, -0.0742674786, -0.0762109572, -0.0174385651, 0.0537777442, 0.0247159389, 0.0032716381, 0.0194383671, -0.0252592062, 0.0670052283, 0.1111622431, -0.0285678485, 0.0307152604, -0.0360583676, 0.0368268900, -0.0375074430, 0.0023924627, 0.0993822319, 0.0389717358, -0.0029441028, -0.0359709158, -0.0283612288, -0.0271703356, -0.0353279562, 0.0149514602, 0.0282545636, 0.0774883043, 0.0973781102, 0.0192894125, -0.0406448429, 0.0377308181, -0.0953328178, 0.0207638682, 0.0720596678, 0.0073604713, 0.0004361537, -0.0548709856, -0.0043171225, 0.0117405004, -0.0152807821, -0.0141197383, -0.0577224129, -0.0443720825, 0.0580453159, 0.0515844157, -0.0112388610, -0.1050944378, 0.0365521842, 0.0502804740, -0.0167902005, -0.0063676452, -0.0719137916, -0.0220394068, 0.0126441837, -0.0288536977, 0.0141615243, -0.0290463646, 0.0426815463, 0.0427641693, -0.0013171659, -0.0680633532, -0.0158435845, -0.0240802927, -0.0843404925, 0.0279344965, -0.1059708467, -0.0268551917, 0.1169224839, 0.0020399626, 0.0770543000, 0.0377244330, 0.0903337034, 0.0417667871, -0.0086108953, 0.1141223439, -0.0482017117, 0.0520028455, -0.0010123707, 0.0456438744, 0.0084948671, 0.0584375521, 0.0381665094, -0.0028762073, -0.1097974744, -0.0462244251, 0.0046574669, -0.0213888338, 0.0229912165, 0.0036091180, -0.0231626689, 0.0390770534, 0.0068469821, -0.0412561914, 0.0111164236, 0.0331587275, 0.0005639611, -0.0033335646, -0.0055887943, 0.0299564161, 0.0372788628, 0.0049971476, 0.0099515268, -0.0196243419, -0.0210073635, -0.0343892323, 0.0999356696, 0.0334867676, 0.0240095241, -0.0334398613, -0.0511526208, -0.0491241041, -0.0757558094, 0.0785451976, -0.0067304028, -0.0272631172, 0.0471728296, -0.0201532034, 0.0068940561, -0.0094504196, 0.0678967951, -0.0588833307, 0.1041273236, 0.0222175942, -0.0122365285, -0.0375297759, -0.0149481341, 0.0144808486, 0.0064023422, -0.0007263049, -0.0030817053, -0.0617803079, 0.0074925009, -0.0170206490, 0.0024932626, -0.0100795916, -0.0197921394, 0.0457609465, 0.0144396078, -0.0945516960, 0.0353605896, -0.0057900535, 0.0685960061, 0.0805900380, 0.0356216787, 0.0347607294, 0.0168385537, -0.0426286088, -0.0749630324, -0.0515603033, -0.0173908564, 0.0017246506, -0.0043338631, -0.0845347215, -0.0518140015, 0.1366495890, 0.0778837773, -0.0624902839, -0.0296963781, 0.0487257191, 0.0160557500, -0.0091793872, -0.0764819933, -0.0541641382, -0.0058280089, -0.0056936543, -0.0437795638, -0.0535723051, 0.0088197548, -0.0454338963, 0.0833497230, -0.0737793361, -0.1261911316, 0.0161991459, 0.0008347619, 0.0384700107, -0.0526872515, -0.0070182341, 0.0905235972, 0.0672792994, -0.0382384799, 0.0547813422, 0.0180070865, -0.0141138626, -0.0372364862, 0.1057151455, -0.0266200761, -0.0730572348, 0.0144015138, 0.0625246414, 0.0633953862, 0.0832910024, -0.0313667584, -0.0227691249, 0.0552355788, 0.0017470703, 0.0810549081, 0.0282865705, 0.0163217043, -0.0186540078, 0.0443087835, 0.0603758309, 0.0531754949, 0.0357303274, 0.0940549459, -0.0835654490, -0.0011688611, -0.0641670309, 0.0155546745, -0.0735890976, 0.0266748701, 0.0737876491, 0.0018315741, 0.0756571407, 0.0271192455, -0.0379942519, 0.0025296918, 0.0181421929, 0.0163197093, 0.0726191149, -0.0275676654, 0.0040640989, 0.0072125474, 0.0073696941, -0.0353820401, -0.0909564581, -0.0360094450, -0.0461440934, 0.0692415990, 0.0564078824, 0.0051361724, 0.0652192786, 0.0444567518, 0.0831362210, -0.0370892813, -0.1075228549, -0.1032675518, 0.0744018313, -0.0347216720, 0.0363093975, 0.0757432958, 0.0304060741, 0.0492752431, -0.0689532131, 0.1050875976, 0.0534841522, 0.0196437163, 0.1422092882, 0.0102911342, -0.0933422931, 0.0148402883, 0.0723486815, -0.0414252055, 0.0279044858, -0.0745061929, -0.0132144488, -0.0537509625, 0.0559409178, -0.0191453881, -0.0463283082, 0.0473994908, -0.0474964082, -0.0105556893, -0.0040880968, -0.0119706182, -0.0557864803, -0.0258529917, -0.0540683794, -0.0111706349, 0.0445980173, -0.0081296966, -0.0532691421, 0.0024388346, -0.0538661962, 0.0169190488, 0.0779143388, 0.0298534624, -0.0309018772, 0.0420215369, -0.0618852044, -0.0118893141, -0.0679570866, -0.0951387206, 0.0734378723, 0.0032530898, 0.0741164158, -0.0094828915, -0.0168378156, 0.0382378851, 0.0252940950, 0.0307777035, -0.0816973154, -0.0557760634, -0.1118376199, -0.0313445792, -0.0012365957, 0.0984721942, -0.0183906093, -0.0507119869, -0.0708478634, -0.0781399914, -0.0633874351, 0.0497774371, 0.0182016376, -0.0051996963, -0.0173315638, 0.0278851375, 0.0194205101, 0.0227049135, -0.0658523484, -0.0771295917, -0.0903110043, -0.0308168952, 0.0373838482, 0.0307450219, 0.0502350462, 0.0527550554, 0.0472104359, -0.0243613408, -0.0304539604, -0.0412401579, 0.0108532889, 0.0072816738, -0.0262178664, -0.0125033434, 0.0118139014, 0.0371513489, 0.0159937545, 0.0688341804, 0.0255845788, 0.0818210355, -0.0351159253, 0.0141779993, -0.0145706064, -0.0582546742, -0.0661581520, -0.0048951948, 0.0127718991, 0.0035777439, -0.0540741491, 0.0279246772, -0.0071170702, 0.0521098724, -0.0465207631, 0.0041101731, 0.0237468533, 0.0427450707, -0.0542923622, 0.0098865443, 0.0324234808, -0.0539989953, -0.0398693665, 0.0388461879, 0.0082732011, -0.0681143702, 0.0088253669, 0.0356094986, 0.1270593388, -0.0336663293, -0.0365458391, -0.0671792412, 0.0571662762, 0.0546502218, -0.0517842092, -0.0415214019, 0.0105487642, 0.0328676404, 0.0550174986, 0.0153696283, -0.0412732763, 0.0606190690, 0.0542979747, 0.0105639866, 0.0501848853, -0.0029854906, 0.0554875802, 0.0973744849, -0.0934396021, -0.1318568652, -0.0157183742, -0.0639938882, -0.0482863347, -0.0318048153, 0.0869450402, 0.0657746374, -0.0532710422, -0.0078244490, 0.0390506179, 0.0182788282, -0.0184872810, -0.0157183437, 0.0040652487, -0.0068442485, -0.0187152817, -0.0802974340, -0.0397153506, -0.0867112459, 0.0347299538, 0.1029510714, -0.0033864593, -0.0225240847, 0.0026730976, -0.0027323572, 0.0252111460, -0.0443895929, 0.0433992142, 0.0027944720, 0.0106476868, -0.0033429373, 0.0214919033, 0.0393174183, 0.0132898354, -0.0071060202, -0.0100568510, -0.0728337248, 0.0056697618, 0.0078442380, 0.0385097645, -0.0599556398, 0.0296176552, -0.0595245249, 0.0989639492, 0.0521657080, -0.0780751860, -0.0111688568, 0.0363109102, -0.0182210223, -0.0321609096, -0.0489924544, 0.0276358359, 0.0811175995, 0.0346236950, -0.0042318798, -0.0040814416, 0.0580992357, 0.0137408312, -0.0872146256, 0.0119917211, -0.0567486762, 0.0194605716, 0.0713565507, 0.0355209293, -0.0639393561, 0.0629933625, -0.1475093290, 0.0299073495, -0.0322349534, -0.0261264249, 0.0828077260, 0.0330255067, -0.0114092421, 0.0503636982, -0.0372803777, -0.0047621853, 0.0125172733, -0.0589702879, -0.0163968488, -0.0025853499, 0.0278489244, 0.0175456158, -0.0493421751, 0.0002706271, 0.0924076341, -0.0045873868, 0.0666528533, 0.0576944425, 0.0300606025, 0.0970424859, 0.0499530968, 0.0154652126, 0.0276575505, -0.0699658105, 0.0102273033, -0.0293310149, 0.0348407888, -0.0049648239, 0.0433888164, 0.0380494016, -0.1245311935, 0.0594834982, -0.0181272421, -0.0742563298, -0.0196998088, 0.0201953808, 0.0695472472, -0.1113546630, -0.0237368925, -0.0076976127, -0.1155060010, 0.0372953994, 0.0182011932, -0.0174710339, -0.0798768509, -0.0114878861, -0.0518445378, -0.0409436883, -0.1434064282, -0.0997887301, -0.0192041988, 0.0010997841, 0.0304188350, -0.0088327169, 0.0972522069, 0.0213962067, -0.0523644926, 0.0018396644, 0.0436366245, 0.0517574900, -0.0428653102, -0.0564872395, -0.0245286226, 0.0626972424, -0.0479111996, 0.0564891716, -0.0161192630, 0.0359233460, 0.0547630840, -0.0040893899, -0.0319080541, 0.0132645274, -0.0329699376, -0.0150157798, -0.0466803337, 0.0525922204, -0.0112946344, 0.0254769811, 0.0983497872, -0.0036353336, -0.0101070535, 0.0548602925, -0.0391710201, -0.0059537942, 0.0161128511, 0.1576143106, -0.0612153219, -0.0035245967, -0.0041707955, -0.0356733510, 0.0840088798, 0.0453124720, -0.0224816383, -0.0011564404, -0.0129671997, 0.0307860718, -0.0031638426, -0.0180045515, 0.0043566270, -0.0220343066, -0.0314477545, 0.0269010275, -0.0314715027, -0.0127650435, 0.0625308980, -0.0254757804, -0.0020874783, -0.0571214241, -0.0683505629, -0.0681818897, -0.0646137138, 0.0820410250, 0.0326674832, -0.0372242746, 0.0724651637, -0.0234011502, 0.0788546686, 0.0451043332, -0.0258682108, -0.0236133185, 0.0563276563, -0.0226376888, -0.0114000666, 0.0079835456, -0.0428530498, -0.0241178372, -0.0300169668, -0.0346537489, -0.0447318827, 0.0921675988, -0.0453573385, -0.0314488632, 0.0411239698, 0.0106328361, -0.0286596517, -0.0544017956, -0.0245301581, 0.0026508315, 0.0473762594, -0.0030968357, 0.0149766983, -0.0006961343, -0.0083413443, 0.0149775910, 0.0160340885, -0.1123034698, -0.0474314823, -0.1023535723, 0.0198071065, -0.0379124481, -0.0195262607, 0.1101161218, 0.1422965755, -0.0624765007, 0.0557449919, -0.0248930417, 0.0375059538, 0.0379661258, -0.0526236788, -0.0367336422, -0.0312759714, -0.0705086110, -0.0019719223, 0.0091417369, 0.0570060138, -0.0569160874, -0.0276139267, 0.0394930702, -0.0225586125, -0.0564058912, -0.0202397596, -0.0246159039, 0.0122133837, 0.0188875880, -0.0828916451, -0.0611191798, -0.0193477534, 0.0132107949, -0.0025856855, 0.0431860743, 0.0184641146, -0.0061961631, 0.0301858460, 0.0115730308, 0.0254919307, -0.0136732853, 0.0147229545, -0.0030772780, -0.0127555927, 0.0189610868, 0.0286337764, -0.0314730555, 0.0313335496, -0.0572257700, 0.0170238159, 0.0021584849, 0.0194214368, 0.0574370176, 0.0650744676, 0.0492666174, 0.0870368157, -0.0156696526, 0.0207152319, -0.0138711438, 0.0597200205, 0.1120836066, -0.0213353199, -0.0392007494, 0.0307100266, -0.0157428195, -0.0756924296, -0.0778742356, -0.0303493616, 0.0502712010, -0.0022575906, 0.0683200843, 0.0392975560, -0.0476136417, 0.0160953831, 0.0411760355, 0.0058835898, -0.1392361987, -0.0536647624, -0.0103387813, 0.0237144219, 0.0847230942, 0.0348862874, 0.0310583367, -0.0160263336, -0.0978111751, -0.0789721117, 0.0080285148, 0.0558223816, -0.0635349565, 0.0226611175, -0.0621089900, -0.0435495539, 0.0229996756, 0.0983611141, 0.0590469981, -0.0156214484, -0.0571906341, 0.0229693016, -0.0534949421, -0.0868013897, 0.0013319765, -0.0041004338, -0.1468952259, 0.0407304638, 0.0348589463, 0.0385049146, -0.0167933211, -0.0171636309, -0.0062260530, 0.0327956468, -0.0128786757, -0.0128290460, 0.1271796369, -0.0537817232, -0.0203208629, -0.0000528252, 0.0176591502, 0.0523123882, -0.0104609401, 0.0401217235, 0.0198607429, -0.0238004833, 0.0261941262, -0.0068689842, -0.0030084416, -0.0656569609, -0.0489501648, -0.1024526836, -0.0238643244, 0.0158159889, 0.0698227687, -0.0367972349, -0.0024819191, -0.0623902289, -0.0463174524, 0.0263576634, 0.0537478549, -0.0560330829, -0.0084332812, -0.0032498622, 0.0877892873, -0.0722733200, -0.0058934479, 0.0081972220, 0.0176580645, -0.0395521329, -0.0995935103, 0.0482783917, 0.0889858619, -0.0702399345, 0.0803694225, 0.0154497488, 0.0151341790, 0.0721483298, 0.0520724134, 0.0032288510, 0.0248230029, -0.0151764139, -0.1228706530, 0.0154414996, 0.0415109311, -0.0771024383, 0.0574407217, -0.0553070729, 0.0219427526, 0.1035890775, -0.0079472957, -0.0004417705, 0.0161363682, -0.0405832865, -0.0352272383, 0.0266983761, -0.0995297761, 0.0117831991, 0.0859863663, -0.0964336741, -0.0041593635, -0.1179129604, -0.0645087494, 0.0211710579, 0.0567628271, -0.0100652363, 0.0067198322, -0.0918607282, -0.0246307694, -0.1233599787, 0.0165139390, 0.0362098452, -0.0239626810, 0.0510877028, -0.0414056966, -0.0682117756, -0.0313102099, 0.0035243895, 0.1441006188, -0.0631343420, 0.0010798175, 0.0251404667, 0.0009647767, -0.0268319217, -0.0616771301, -0.0300355762, -0.0354717020, -0.0486081671, 0.0172723470, -0.0432895116, 0.0489113243, 0.1019379258, 0.0691378619, -0.0359582538, -0.0873337891, 0.0225455922, -0.0717801271, -0.0783619116, -0.0850450912, -0.0171357379, -0.1282893852, 0.0394571573, -0.0694523870, 0.0404639324, 0.0312183203, -0.0274861536, 0.0378977381, 0.0519364902, 0.0003710189, 0.0743707429, 0.0693184945, -0.0148233950, 0.0088717403, 0.0081332011, -0.0089134472, 0.0049802654, -0.0781727440, 0.0173504842, 0.0800806765, -0.0076747325, 0.0235263960, -0.0715461931, 0.1108866321, 0.0656395301, -0.0176932824, 0.1090759721, -0.0145901027, 0.0027037504, 0.0188564836, -0.0063220327, -0.0548026024, -0.0354595796, -0.1077388281, -0.0093751699, -0.0023482225, -0.0790142884, -0.0489967624, -0.0277995822, 0.0072761963, 0.0597518449, -0.0191336471, -0.0082657411, -0.0054231456, -0.0195306139, 0.0424508484, 0.0478025824, -0.0413609129, -0.0275200754, -0.0439634636, 0.0135410168, -0.0030453735, -0.0359791200, 0.1050532340, -0.0299007041, 0.0346290108, 0.0511696874, -0.0145077853, -0.0308849166, -0.0762146730, -0.0110590032, -0.0419114223, 0.0356954101, -0.0476028706, -0.0847309309, 0.1363817606, 0.0699314406, -0.0452627650, 0.0074413740, 0.0636018613, -0.0576891781, -0.0962110670, 0.0285760572, -0.0319809943, 0.0293949185, -0.0863900209, -0.0021476624, 0.1145705748, -0.0285208996, 0.0478530430, -0.0150252214, 0.0124681378, -0.0784381479, -0.0460621582, 0.0712345995, -0.0426184048, -0.0206632554, -0.0270774973, -0.0254037392, 0.1087463202, -0.0124075189, 0.0448895304, -0.1211366550, -0.0174433474, 0.0065834156, 0.0139119546, -0.0184704754, 0.0056009082, -0.0261306201, 0.0744426689, 0.0224828370, -0.0710472144, 0.0057957935, 0.0021227987, 0.0190924408, -0.0876338736, -0.0512786230, -0.0606423147, 0.0482020031, 0.0953389164, -0.0703125336, 0.0167382428, 0.0215993244, -0.0335938233, 0.0563278992, 0.0058421587, 0.0236660603, -0.0333379068, -0.0267366450, 0.0524008470, -0.0314297225, 0.0382803301, 0.0224447457, -0.0478223160, -0.0144009657, -0.0188195479, -0.1022254249, 0.0840517000, 0.0623450115, 0.0275748277, 0.0120201459, 0.0590059846, 0.0147463085, 0.0014001004, -0.0223975172, -0.0025013071, 0.0417281393, -0.0682198510, 0.0439082434, -0.0226553954, -0.0536772381, -0.0220976581, 0.0236452185, 0.0186222162, 0.0109220496, 0.1183524707, 0.0773159517, 0.0005535088, 0.0285131103, -0.0312259236, 0.0230969090, 0.0501386768, 0.0455124451, -0.0156453614, -0.0094192122, -0.0234399415, -0.0028020056, -0.1225423967, -0.0322166882, 0.0065175331, 0.0318707698, 0.0067106958, -0.0165961810, 0.0570105413, -0.0642341010, 0.0681858753, -0.0007072436, 0.1142727357, -0.0394983412, -0.0422311627, 0.0146041445, -0.0927982359, 0.0205587786, -0.0197485169, 0.0495478588, 0.0209658847, 0.0047738353, 0.0085407329, 0.0446578506, 0.0297403525, 0.0303615528, 0.0498326902, -0.0265720456, -0.0117536343, 0.0138408903, -0.0033016835, 0.0708919008, 0.0051966993, -0.1007976609, -0.0024184147, -0.0495098836, -0.0208065157, 0.0334104633, -0.0388315866, 0.0250936877, -0.0426888968, -0.0027251419, -0.0856634657, 0.0971471067, 0.0300312832, 0.0140731419, -0.0401021913, 0.0270218741, 0.0287591607, 0.0168772004, 0.0425881479, -0.0683891559, 0.0451838767, 0.0530951656, -0.0520551797, -0.0024879267, 0.0228837417, 0.0609436244, -0.0754275301, 0.0950502469, -0.0237980471, 0.0224286318, -0.0048836979, 0.0002793902, -0.0412102914, -0.0349004432, 0.0110461405, 0.0148496618, -0.0407747805, 0.0155797753, 0.0285945334, -0.0458527975, 0.0297601783, 0.0576146962, -0.0478850571, 0.0806494713, 0.0290126743, -0.0113010239, 0.0211601894, -0.0582384568, 0.0518917975, 0.0293177631, 0.0016203622, -0.1077559558, 0.0881711667, 0.0663278954, 0.0165230154, -0.0207431142, 0.0930802090, 0.0151927721, 0.0537606235, -0.0110469642, 0.0015416805, 0.0187088401, -0.0858975728, 0.0195435438, 0.0534892976, -0.0168313659, 0.0333940510, 0.0296116320, -0.0000973333, 0.0104397903, -0.0766140161, -0.0490419154, -0.0454382986, 0.0759771592, 0.0147159646, -0.0308627257, -0.0579051312, -0.1072704490, -0.0086908260, -0.0822460325, 0.0518663060, 0.0203757101, -0.0555327849, 0.0967815773, 0.0164694306, 0.0010401897, -0.0404172607, 0.0361186339, 0.0040203423, -0.0485088447, -0.0467735000, -0.0438103628, -0.0058556872, -0.0758646381, -0.0478446610, -0.0782646681, 0.0633487158, -0.0573415559, -0.0303943594, -0.0510488087, -0.0380373048, -0.0139387261, -0.0893248153, 0.0353084401, -0.0428743099, 0.0493845473, 0.0293249473, -0.0622552626, -0.0298144796, 0.0681105818, -0.0033173489, -0.0049159972, 0.0187495357, 0.0233647125, -0.0289658170, 0.0372453016, 0.0058918603, 0.0582695857, 0.0226902939, -0.0651435125, -0.0334785067, 0.0771261906, 0.0014787444, -0.0401485912, -0.0354331626, 0.0490138721, -0.0005368414, 0.0347866352, 0.0408748538, 0.1315216890, -0.0600750140, -0.0424915822, -0.0365021544, -0.0633533421, -0.0570193368, -0.0030056529, 0.0735877978, 0.0344670976, -0.0116790898, 0.0349956459, 0.0029482287, 0.0823620550, -0.0210663216, -0.0971625514, 0.0285183355, 0.0460678137, -0.0527997822, 0.0086569344, 0.0390356433, -0.0381497245, -0.0660626069, -0.0522102596, 0.0442836535, -0.0292247545, -0.0295740481, -0.0542458734, -0.0225524950, -0.0498030166, -0.0796814214, 0.0328302348, 0.0178666905, 0.0522096538, -0.0395217387, 0.0375436327, 0.0692557569, -0.0031292869, 0.0060781454, 0.0711817436, 0.0256481207, -0.0198451489, 0.0437800182, 0.0208034650, 0.0510777891, 0.0343578857, 0.0568000114, 0.0266054154, 0.0613887102, 0.0681820013, -0.0257330478, 0.0080723414, 0.0137027792, 0.0123564446, 0.0121445858, 0.0431471564, -0.0151997768, -0.0288913394, 0.0342510375, 0.1022737679, -0.0118336926, -0.0300585922, -0.0628534650, -0.0538817433, 0.0332858807, 0.0452021378, 0.0137138112, -0.0013920691, 0.0279418959, -0.0407513876, -0.0401195588, 0.0911001790, -0.0362761406, -0.0007643715, -0.0877920844, 0.0343714907, -0.0337103001, 0.0476689907, 0.0925273062, -0.0374968070, 0.0189154105, -0.0527967599, 0.0493654723, -0.0107760174, 0.0481738728, -0.0924371922, -0.0046669961, 0.0467436598, -0.0085140427, 0.0038230160, -0.0674087862, 0.0271799957, -0.0511968888, -0.0712801470, -0.0296823491, -0.0036181621, -0.0330098776, 0.0366595150, -0.0394704272, 0.0269252672, 0.0387718138, -0.0489630906, -0.0252476997, -0.0045702927, -0.0419554097, -0.0504260801, -0.0044890698, 0.0254289037, -0.0398271282, 0.0481880946, -0.0841858968, 0.0694499399, 0.0190828398, -0.1090739440, 0.0456457517, 0.0732367130, -0.0205088607, 0.0567778776, 0.0375263894, 0.0147495481, 0.0573511268, 0.0272316632, 0.0512453185, 0.0312600372, 0.0459052705, -0.0226061592, -0.0408369911, -0.0001711791, 0.0127156572, 0.0060058924, 0.0367980859, -0.0811891778, -0.0336815985, 0.0549154308, 0.0655564059, -0.0160631720, -0.0353224227, -0.0276060880, 0.0452782318, -0.0144657180, 0.1187033568, -0.0548271455, 0.0335206214, -0.0453726537, -0.0153489714, -0.0355867611, 0.0527253985, 0.0310841903, -0.0424511908, 0.0637010892, 0.0028832502, -0.0545440569, -0.0255785288, 0.0112876124, 0.0270545606, -0.0635228378, 0.0131906615, -0.0166878957, -0.0157305382, 0.0755558959, -0.0019417958, -0.0559364797, -0.0485907621, 0.0359484665, 0.0272920022, 0.0476774060, -0.0860943257, -0.0009440893, -0.0096869132, -0.0381618735, 0.0561267079, -0.0172732892, 0.0176244635, -0.0015644305, 0.0665026798, -0.0355777846, 0.0402510974, -0.0212755566, -0.0493000148, -0.0400024800, -0.0718296820, -0.0510848126, 0.0416068999, 0.0664815925, 0.0103588805, -0.0647694135, 0.0148716928, -0.0319537294, -0.0022674803, -0.0714006988, 0.0291637210, -0.0333837027, -0.0190662424, -0.0274980532, -0.0015089710, -0.0220961599, -0.0180704699, 0.0094796143, 0.0075194164, -0.0338629463, 0.1244284973, 0.0140151092, -0.0725740219, 0.0160091294, -0.0254509965, 0.0394148835, -0.0494628592, -0.0535339414, -0.1069068276, 0.0225275944, -0.0176481340, -0.0693219777, -0.0372068858, -0.0746969050, 0.0567236583, -0.0102928655, 0.0338200177, 0.0061937267, 0.0133607191, -0.0028011456, 0.0511664115, 0.0281458459, -0.0476819949, -0.0514687928, -0.0314321778, -0.0522675172, 0.0976877665, 0.0095939080, 0.0088703940, 0.0048629325, -0.0342481235, -0.0229771207, -0.0098754228, 0.0369719002, 0.0589191573, 0.0498532535, -0.1070362272, -0.0973420744, -0.0249766159, -0.0476639978, 0.0149506008, 0.0614962499, 0.0339111704, 0.0786694506, 0.0754795546, -0.0343483835, 0.0394578238, 0.0140765353, -0.0298581937, -0.0440633027, -0.0451499988, -0.0798892935, -0.0412461285, 0.1004679177, -0.0073506666, 0.0390255714, 0.0077773305, 0.0264084414, -0.0135017759, 0.0158431198, -0.0748496841, 0.0360978382, -0.0322819748, -0.0587449089, 0.0389418899, -0.0457537193, 0.0286229469, 0.0116877325, 0.0743557767, 0.0191043555, -0.0702932329, -0.1303766858, 0.0809944462, 0.0744052274, 0.0685282510, -0.0187381432, 0.0609464492, 0.0407450531, 0.0348635554, 0.0034740802, 0.1076370459, 0.0779937658, 0.0044229857, 0.0058377338, -0.0216264511, -0.0454352005, -0.0593642592, -0.1000849707, -0.0181051342, 0.0157498217, 0.0197165578, -0.0130307306, 0.0028268405, -0.0400095046, 0.0834821717, 0.0091269334, -0.1029616326, 0.0823477570, 0.0420224380, 0.0774848445, -0.0256490892, 0.0383399722, -0.0465605676, -0.0665661083, 0.0005768183, -0.0063338753, -0.0091323235, -0.0107921814, -0.0044850722, 0.0104431294, 0.0008645616, 0.0670945523, -0.0375116112, -0.1475610782, -0.0239802187, 0.0224626670, 0.0129136041, 0.1085672668, -0.0291623497, 0.0104587236, -0.0718351279, 0.0787720835, 0.0768769389, -0.0087587167, -0.0053687711, -0.0720275576, -0.0244899392, -0.0090124856, -0.0908877318, -0.0240123500, 0.0163777196, -0.0058853520, 0.0752203189, 0.0442602281, 0.0696722695, -0.0313043956, 0.0227442223, 0.0656005028, -0.0061998553, -0.0805430417, -0.0063428325, -0.1157490731, -0.0814845357, -0.0329224730, -0.0158097628, -0.0260652430, 0.0384646876, 0.0618820163, 0.0222104819, 0.0053958767, 0.0113147593, 0.0188471643, 0.0279069500, -0.0322085733, 0.0253362360, 0.1054564788, 0.0432412982, 0.0585683877, 0.0320191506, -0.0729246489, -0.0408639401, -0.0538233172, -0.0331883711, 0.0253280217, -0.0050243086, 0.0678658429, 0.0935684965, -0.0212891387, -0.0690145584, 0.0644663817, 0.0398156468, 0.0021283925, -0.0696877512, 0.0057668902, -0.0568110729, 0.0273332999, -0.0203124973, -0.0058748164, 0.0547314033, 0.0627853493, 0.0552063661, 0.0064629605, 0.0001000327, 0.0033768522, 0.0637100175, 0.0676980890, -0.1175793424, 0.0320778743, -0.0226760149, -0.0061841966, 0.0009490001, 0.0081333845, 0.0329974742, 0.1284478323, -0.0214182545, 0.0024847962, 0.0710893691, -0.0289244821, 0.0405692954, 0.0536330835, 0.0141235509, 0.1519662077, 0.0159033480, 0.0793159647, 0.0410791571, -0.0608230283, 0.0622768604, 0.0590663783, 0.0006575489, 0.0767845483, 0.0259897083, 0.0161373752, 0.0662608786, 0.0231495545, 0.0839009995, 0.0188984799, 0.0188293674, 0.0539053730, -0.0041704562, -0.0457840264, -0.0325230710, -0.0232919332, -0.0122124520, -0.0263008464, 0.0568610133, -0.0096250669, -0.0752918895, 0.0161655157, 0.0021077803, -0.0356365933, 0.0304976110, -0.0287143201, 0.0371099658, 0.0167625419, 0.0889284964, -0.0573137070, -0.0445314645, 0.0087804239, 0.0197478294, -0.0240744890, 0.0037743900, 0.0027488234, 0.0489469260, 0.0374216568, -0.0362876436, -0.0265851774, -0.0211362234, 0.0071540655, -0.0177986255, 0.0134363743, -0.0308727847, -0.0200924869, -0.0077694273, 0.0061756289, -0.0146262946, 0.0928742030, 0.0131288848, 0.0325571891, -0.0221297577, -0.0671583410, 0.0315275651, -0.1344801075, 0.0224801691, -0.0536008720, -0.0389223888, -0.0408609524, 0.0117083339, -0.0097021979, 0.0255149713, -0.0233326679, -0.0415519176, 0.0743762517, -0.0611595130, 0.0173830177, -0.0889893109, 0.0157872377, 0.0110861833, -0.0090598877, 0.0168925388, -0.0813032293, -0.0249354700, -0.0209503042, -0.0614771728, 0.1055159338, -0.0369724081, 0.0266776647, -0.0864401751, -0.0561420408, -0.0123808743, 0.0284082817, -0.0667761261, 0.0871697734, 0.0357187938, 0.0002476772, 0.1586422769, -0.0309317832, -0.0357568287, 0.0072110908, 0.0874972314, 0.0475948732, -0.0282241603, 0.1132048224, -0.0054043638, 0.0374578383, -0.0203956410, 0.0231995271, 0.0041302142, -0.0145283721, -0.0099424601, 0.0429772008, -0.0469563143, 0.0063541277, -0.1184078779, 0.0310906362, -0.0420096011, -0.0005852984, 0.0360682461, -0.0456743118, -0.0195664697, 0.0396681973, -0.1036619388, 0.0966401851, 0.0522040204, -0.0595849054, 0.0190100845, -0.0194378596, 0.0499134248, -0.0286476881, 0.0377688167, 0.0132445003, 0.0456498238, 0.0574481411, -0.0136286302, 0.0218877830, -0.0020551746, -0.0762668868, -0.0350691901, 0.0103121074, 0.0628950838, 0.0232947512, 0.0454974160, 0.0222508206, 0.0938033397, -0.0101384833, -0.0121056760, 0.0149867660, -0.0680631870, 0.0897820136, 0.1111200297, -0.0820173186, -0.0926969120, 0.0164441223, -0.0212353884, -0.0511364788, 0.0186894344, -0.0475633066, 0.0128552104, 0.0434732813, 0.0159168494, 0.0039809418, 0.0057075295, -0.0153956670, 0.0781683134, 0.0286408949, -0.1132420466, 0.0134613940, -0.1184767748, 0.1064376026, 0.0158883012, -0.0200221043, -0.0018624741, 0.0193016667, -0.0174111626, -0.1100712368, 0.0737466426, -0.0610534830, -0.0057945572, 0.0104537211, 0.0268249662, -0.0087588768, -0.0311756416, 0.0257760307, -0.0486906539, 0.0339946802, 0.0306903605, 0.0108384934, 0.0272998637, -0.0394177504, -0.0149684178, -0.1075069169, -0.0325772132, -0.0208691251, 0.0235597159, 0.1146828940, 0.1342098806, 0.0184826642, 0.0465068594, -0.0151778418, -0.0326911927, -0.0455595297, 0.0430403902, 0.0358495267, 0.0090159163, -0.0451856381, -0.0344504344, -0.0529799485, 0.0115257953, -0.0424699610, -0.0088033072, 0.0481108287, 0.0396630749, -0.0253580980, -0.0841213815, 0.0302921779, -0.0112652397, 0.0252056979, -0.0280897986, -0.0686901216, 0.0447122359, -0.0089599294, 0.0543265868, -0.0436074339, -0.0223019849, 0.1002422552, -0.0030054879, -0.0681353669, -0.0001417175, 0.0497720012, 0.0784907771, 0.0414760663, 0.0310625639, -0.0753005239, -0.0487870905, -0.0026062762, 0.0485818239, 0.0477993277, -0.0098618741, 0.0593248146, -0.0397420699, -0.1068017917, 0.0671654467, 0.0762586784, -0.0086461413, 0.0237342186, -0.0677563402, 0.0058611566, 0.0619511800, 0.0490252766, -0.0665509976, 0.0416835667, 0.0673166063, -0.0071783312, -0.0332264179, 0.0575327220, -0.0146918019, 0.0007483254, -0.0227295731, -0.0159618097, 0.0023223263, -0.0667415322, 0.0355537750, 0.0318732463, 0.0408332286, -0.0894366982, -0.0422067125, 0.0658655435, 0.0413407694, 0.0027557106, -0.0267588430, -0.0335508650, 0.1029280959, -0.0488636132, 0.0335800730, 0.0024475149, 0.0958822069, 0.0552916696, 0.0078207839, 0.0034487281, 0.0060667792, -0.0249935628, 0.0412327311, 0.0165608992, 0.0793822935, -0.0177964095, -0.0298529083, 0.0139164951, -0.0448034032, -0.0640007609, 0.0237653886, -0.0638135233, -0.0509845170, -0.0392761612, -0.1022206670, 0.0505062330, 0.0171997363, -0.0218731344, -0.0972652182, 0.0019657042, -0.0490875016, -0.0287922534, -0.0379306406, -0.0301285286, -0.0487050619, -0.0178196891, -0.0127296163, 0.0671481797, 0.0196190006, 0.0129490916, 0.0787713923, 0.0251253458, -0.0840063126, -0.0300685497, 0.0257072006, -0.0282135755, -0.0461873220, -0.0167641617, -0.0655574368, -0.0032656491, 0.0060447726, 0.0734585980, -0.0428903922, 0.0210539794, -0.0399590747, -0.0271030728, -0.0197056587, -0.0658452239, -0.0483427454, -0.0236046856, -0.0232835624, -0.0665244262, 0.0397853084, -0.0058696252, 0.0550596980, -0.0083493751, 0.0053651715, -0.0688541576, 0.0459836493, -0.0601291949, -0.0323832041, -0.0000486561, -0.0882679421, -0.0492894468, 0.1335521810, -0.0407920807, -0.0166572622, 0.0852911281, 0.0302679765, 0.0052317187, -0.0103428770, 0.0458687171, 0.0425654215, 0.0631746819, 0.0738755742, -0.0633841123, -0.0880501109, 0.0105691852, -0.0295367220, 0.0293357062, -0.0076575020, -0.0489513954, -0.0073545879, 0.0147510026, 0.0373755681, -0.1300497171, -0.0179136064, -0.0194503404, 0.0129184342, -0.0668419009, -0.0217021364, 0.0446413670, -0.0669048904, 0.1166480037, -0.0243068383, 0.0120841403, 